{"learner":{"attributes":{"scikit_learn":"{\"_estimator_type\": \"classifier\"}"},"feature_names":["Tenure","CityTier","WarehouseToHome","Gender","HourSpendOnApp","NumberOfDeviceRegistered","SatisfactionScore","NumberOfAddress","Complain","OrderAmountHikeFromlastYear","CouponUsed","OrderCount","DaySinceLastOrder","CashbackAmount","PreferredLoginDevice_Mobile Phone","PreferredLoginDevice_Phone","PreferredPaymentMode_COD","PreferredPaymentMode_Cash on Delivery","PreferredPaymentMode_Credit Card","PreferredPaymentMode_Debit Card","PreferredPaymentMode_E wallet","PreferredPaymentMode_UPI","PreferedOrderCat_Grocery","PreferedOrderCat_Laptop & Accessory","PreferedOrderCat_Mobile","PreferedOrderCat_Mobile Phone","PreferedOrderCat_Others","MaritalStatus_Married","MaritalStatus_Single"],"feature_types":["int","int","int","int","int","int","int","int","int","int","int","int","int","float","int","int","int","int","int","int","int","int","int","int","int","int","int","int","int"],"gradient_booster":{"model":{"gbtree_model_param":{"num_parallel_tree":"1","num_trees":"100"},"iteration_indptr":[0,1,2,3,4,5,6,7,8,9,10,11,12,13,14,15,16,17,18,19,20,21,22,23,24,25,26,27,28,29,30,31,32,33,34,35,36,37,38,39,40,41,42,43,44,45,46,47,48,49,50,51,52,53,54,55,56,57,58,59,60,61,62,63,64,65,66,67,68,69,70,71,72,73,74,75,76,77,78,79,80,81,82,83,84,85,86,87,88,89,90,91,92,93,94,95,96,97,98,99,100],"tree_info":[0,0,0,0,0,0,0,0,0,0,0,0,0,0,0,0,0,0,0,0,0,0,0,0,0,0,0,0,0,0,0,0,0,0,0,0,0,0,0,0,0,0,0,0,0,0,0,0,0,0,0,0,0,0,0,0,0,0,0,0,0,0,0,0,0,0,0,0,0,0,0,0,0,0,0,0,0,0,0,0,0,0,0,0,0,0,0,0,0,0,0,0,0,0,0,0,0,0,0,0],"trees":[{"base_weights":[-2.4458238E-1,1.861375E0,-8.2917976E-1,1.1033047E0,3.1211228E0,4.146931E-1,-9.222117E-1,5.413555E-1,2.4833822E0,2.3851722E-1,3.316488E0,-2.1513267E-1,2.0282648E0,-1.0435832E0,-5.58524E-1,1.752541E0,6.64487E-2,-3.7526846E-1,2.8612561E0,-2.5333416E-1,4.882676E-1,3.4044695E0,1.32333E-1,6.619516E-1,-7.49876E-1,7.234274E-1,9.4136566E-1,-1.0745589E0,-3.649701E-1,-7.398091E-1,6.033694E-1,1.8785442E-1,2.2194598E0,-1.2550083E-1,7.8312725E-1,-2.2797881E-1,7.256012E-2,8.5941696E-1,3.2542844E0,2.581798E0,1.1412097E0,-3.366552E-1,1.5986929E0,-1.0991094E0,8.112265E-1,-2.045782E-1,1.2393713E0,-1.0896813E0,-3.7628186E-1,7.1904397E-1,-6.9278485E-1,7.773336E-2,-8.877426E-1,1.4182392E0,-7.640079E-1,-1.7592274E-1,3.2552102E-1,3.807992E-1,9.3476033E-1,-1.7406361E-1,1.5339719E-1,-2.1711372E-1,5.00776E-1,1.0184207E0,2.1112926E-1,8.7380713E-1,3.9895055E-1,-2.8883988E-1,2.5243694E-1,8.529566E-1,1.1082206E-1,-3.4931758E-1,-6.6009045E-2,6.268367E-1,-2.1711372E-1,4.5471397E-1,7.256012E-2,-3.1686926E-1,-3.7249285E-1,1.844411E-1,-2.634417E-1,-3.3913687E-2,4.262737E-1,-2.7687362E-1,-5.238378E-4,6.023973E-1,-2.0075347E-1,-2.9292718E-1,7.113013E-2,9.264906E-3,6.7586434E-1,-3.0881605E-1,7.256012E-2],"categories":[],"categories_nodes":[],"categories_segments":[],"categories_sizes":[],"default_left":[0,0,0,0,0,0,0,0,0,0,0,0,0,0,0,0,0,0,0,0,0,0,0,0,0,0,0,0,0,0,0,0,0,0,0,0,0,0,0,0,0,0,0,0,0,0,0,0,0,0,0,0,0,0,0,0,0,0,0,0,0,0,0,0,0,0,0,0,0,0,0,0,0,0,0,0,0,0,0,0,0,0,0,0,0,0,0,0,0,0,0,0,0],"id":0,"left_children":[1,3,5,7,9,11,13,15,17,19,21,23,25,27,29,31,33,35,37,-1,-1,39,-1,41,43,45,-1,47,49,51,53,55,57,59,-1,-1,-1,61,63,65,-1,67,69,71,73,-1,75,77,79,81,83,85,87,89,91,-1,-1,-1,-1,-1,-1,-1,-1,-1,-1,-1,-1,-1,-1,-1,-1,-1,-1,-1,-1,-1,-1,-1,-1,-1,-1,-1,-1,-1,-1,-1,-1,-1,-1,-1,-1,-1,-1],"loss_changes":[7.4100616E2,1.214794E2,5.4865845E1,6.319129E1,2.6577423E1,3.443372E1,1.8767303E1,3.4633797E1,2.6783173E1,7.63536E0,9.992615E0,1.2205522E1,1.1467026E1,6.4926453E0,2.4003654E1,1.1986095E1,2.2026987E1,1.0533111E0,1.3833847E1,0E0,0E0,4.6215515E0,0E0,9.880428E0,9.602856E0,4.9490914E0,0E0,2.8921509E0,6.1170073E0,1.1823883E1,1.8516315E1,4.105694E0,7.1023407E0,1.2537933E1,0E0,0E0,0E0,7.39767E0,3.8116608E0,3.3663788E0,0E0,4.985307E0,7.0993004E0,5.1750946E-1,8.372104E0,0E0,8.724427E-1,2.4176025E-1,4.5967054E0,2.5913656E0,2.0100522E0,2.414028E1,8.449371E0,1.1687565E1,1.9819531E0,0E0,0E0,0E0,0E0,0E0,0E0,0E0,0E0,0E0,0E0,0E0,0E0,0E0,0E0,0E0,0E0,0E0,0E0,0E0,0E0,0E0,0E0,0E0,0E0,0E0,0E0,0E0,0E0,0E0,0E0,0E0,0E0,0E0,0E0,0E0,0E0,0E0,0E0],"parents":[2147483647,0,0,1,1,2,2,3,3,4,4,5,5,6,6,7,7,8,8,9,9,10,10,11,11,12,12,13,13,14,14,15,15,16,16,17,17,18,18,21,21,23,23,24,24,25,25,27,27,28,28,29,29,30,30,31,31,32,32,33,33,37,37,38,38,39,39,41,41,42,42,43,43,44,44,46,46,47,47,48,48,49,49,50,50,51,51,52,52,53,53,54,54],"right_children":[2,4,6,8,10,12,14,16,18,20,22,24,26,28,30,32,34,36,38,-1,-1,40,-1,42,44,46,-1,48,50,52,54,56,58,60,-1,-1,-1,62,64,66,-1,68,70,72,74,-1,76,78,80,82,84,86,88,90,92,-1,-1,-1,-1,-1,-1,-1,-1,-1,-1,-1,-1,-1,-1,-1,-1,-1,-1,-1,-1,-1,-1,-1,-1,-1,-1,-1,-1,-1,-1,-1,-1,-1,-1,-1,-1,-1,-1],"split_conditions":[2E0,1E0,1.2367E2,4E0,3E0,1E0,1E0,2E0,3E0,1E0,2.2481E2,1.4E1,4E0,7E0,8E0,3E0,9E0,2E0,3E0,-2.5333416E-1,4.882676E-1,1.3E1,1.32333E-1,1.4E1,5E0,2E0,9.4136566E-1,6E0,1.3E1,6E0,1E0,1.6E1,2E0,1E0,7.8312725E-1,-2.2797881E-1,7.256012E-2,6E0,3.3E1,1E0,1.1412097E0,1E0,1.5E1,1E0,1E0,-2.045782E-1,3E0,2.2E1,1E0,9E0,1E0,2E0,3.3E1,1E0,2E0,-1.7592274E-1,3.2552102E-1,3.807992E-1,9.3476033E-1,-1.7406361E-1,1.5339719E-1,-2.1711372E-1,5.00776E-1,1.0184207E0,2.1112926E-1,8.7380713E-1,3.9895055E-1,-2.8883988E-1,2.5243694E-1,8.529566E-1,1.1082206E-1,-3.4931758E-1,-6.6009045E-2,6.268367E-1,-2.1711372E-1,4.5471397E-1,7.256012E-2,-3.1686926E-1,-3.7249285E-1,1.844411E-1,-2.634417E-1,-3.3913687E-2,4.262737E-1,-2.7687362E-1,-5.238378E-4,6.023973E-1,-2.0075347E-1,-2.9292718E-1,7.113013E-2,9.264906E-3,6.7586434E-1,-3.0881605E-1,7.256012E-2],"split_indices":[0,8,13,7,5,8,8,12,5,28,13,9,6,10,7,6,12,1,6,0,0,2,0,2,6,7,0,5,9,0,23,9,1,28,0,0,0,7,2,23,0,28,2,17,15,0,12,0,27,7,23,12,2,3,1,0,0,0,0,0,0,0,0,0,0,0,0,0,0,0,0,0,0,0,0,0,0,0,0,0,0,0,0,0,0,0,0,0,0,0,0,0,0],"split_type":[0,0,0,0,0,0,0,0,0,0,0,0,0,0,0,0,0,0,0,0,0,0,0,0,0,0,0,0,0,0,0,0,0,0,0,0,0,0,0,0,0,0,0,0,0,0,0,0,0,0,0,0,0,0,0,0,0,0,0,0,0,0,0,0,0,0,0,0,0,0,0,0,0,0,0,0,0,0,0,0,0,0,0,0,0,0,0,0,0,0,0,0,0],"sum_hessian":[5.996339E2,1.298125E2,4.698214E2,8.2214584E1,4.759792E1,3.2453125E1,4.373683E2,5.9414185E1,2.2800402E1,3.1620994E0,4.4435818E1,2.3965385E1,8.4877405E0,3.2652838E2,1.10839905E2,1.5976923E1,4.343726E1,2.6628206E0,2.013758E1,1.9971154E0,1.164984E0,4.293798E1,1.4978366E0,8.98702E0,1.4978366E1,4.659936E0,3.8278046E0,3.1171643E2,1.4811939E1,9.61944E1,1.4645514E1,3.9942307E0,1.1982693E1,4.127372E1,2.1635418E0,1.4978366E0,1.164984E0,3.8278046E0,1.6309776E1,1.6476202E1,2.6461779E1,4.659936E0,4.3270836E0,1.2481972E1,2.4963944E0,1.164984E0,3.494952E0,3.045601E2,7.15633E0,3.1620994E0,1.164984E1,1.4811939E1,8.1382454E1,9.153446E0,5.4920673E0,2.329968E0,1.6642629E0,6.989904E0,4.992789E0,2.4131811E1,1.7141907E1,1.3314103E0,2.4963944E0,1.5144792E1,1.164984E0,1.1982693E1,4.49351E0,3.1620994E0,1.4978366E0,1.4978366E0,2.8292468E0,1.1316987E1,1.164984E0,1.164984E0,1.3314103E0,2.329968E0,1.164984E0,2.5613007E2,4.843005E1,2.329968E0,4.826362E0,1.8306892E0,1.3314103E0,8.4877405E0,3.1620994E0,3.6613784E0,1.1150561E1,7.555753E1,5.82492E0,3.8278046E0,5.325641E0,4.3270836E0,1.164984E0],"tree_param":{"num_deleted":"0","num_feature":"29","num_nodes":"93","size_leaf_vector":"1"}},{"base_weights":[-2.2594382E-1,9.835087E-1,-7.10856E-1,6.818279E-1,1.6330332E0,2.9006758E-1,-8.0145574E-1,9.5497924E-1,-2.0493227E-1,1.2226856E0,6.581243E-1,-1.6174026E-1,1.1685848E0,-9.258537E-1,-4.600194E-1,5.940308E-1,1.7710578E0,-7.591754E-1,5.036166E-1,-3.2475042E-1,1.3686352E0,7.0315397E-1,-6.191157E-1,-8.70715E-2,1.3737391E0,-9.592728E-1,-2.834588E-1,-6.525603E-1,3.0814433E-1,-5.0669543E-2,1.1529174E0,1.3703555E0,7.6366687E-1,-9.5388645E-1,1.8087971E-1,-2.3007883E-2,4.9292055E-1,-2.0578818E-1,5.9264254E-2,1.6005694E0,3.2561195E-1,1.2718834E0,2.3095214E-3,1.4410001E-1,-3.250513E-1,1.6657417E0,6.8546593E-1,-9.755598E-1,-3.0568075E-1,5.4412943E-1,-5.8363616E-1,-3.3624777E-1,-3.4143484E-1,8.085904E-1,-7.7176446E-1,3.20498E-1,-1.766671E-1,3.8663577E-3,4.513341E-1,5.0051546E-1,-9.061815E-2,-3.2101193E-1,-5.4274067E-2,2.3975661E-1,-1.2553516E-1,-2.3732072E-1,3.0722082E-1,5.1561564E-1,6.065897E-2,-2.890654E-1,3.2795423E-1,5.523799E-1,-6.801254E-2,-1.5077499E-1,1.5649363E-1,-8.4591374E-2,2.64962E-1,1.4277598E-1,5.898403E-1,-8.88485E-2,4.4886908E-1,-3.0925393E-1,-2.5909227E-1,-2.8312543E-1,1.1557347E-1,-9.931354E-2,5.2417886E-1,-2.4283561E-1,-4.0455651E-4,-1.5560511E-1,3.2520205E-1,-3.8857713E-2,3.7190098E-1,5.2358005E-2,-3.0458426E-1],"categories":[],"categories_nodes":[],"categories_segments":[],"categories_sizes":[],"default_left":[0,0,0,0,0,0,0,0,0,0,0,0,0,0,0,0,0,0,0,0,0,0,0,0,0,0,0,0,0,0,0,0,0,0,0,0,0,0,0,0,0,0,0,0,0,0,0,0,0,0,0,0,0,0,0,0,0,0,0,0,0,0,0,0,0,0,0,0,0,0,0,0,0,0,0,0,0,0,0,0,0,0,0,0,0,0,0,0,0,0,0,0,0,0,0],"id":1,"left_children":[1,3,5,7,9,11,13,15,17,19,-1,21,23,25,27,29,31,33,35,37,39,41,43,-1,45,47,49,51,53,55,57,59,-1,61,63,65,-1,-1,-1,67,69,71,73,75,-1,77,79,81,83,85,87,89,-1,91,93,-1,-1,-1,-1,-1,-1,-1,-1,-1,-1,-1,-1,-1,-1,-1,-1,-1,-1,-1,-1,-1,-1,-1,-1,-1,-1,-1,-1,-1,-1,-1,-1,-1,-1,-1,-1,-1,-1,-1,-1],"loss_changes":[3.30729E2,3.0526123E1,3.6711075E1,2.7318134E1,8.9357605E0,1.3733273E1,1.5252945E1,2.421605E1,1.1061076E1,7.539585E0,0E0,9.696966E0,3.90351E0,5.5154114E0,1.5074781E1,2.2030605E1,4.518944E0,3.0382833E0,7.5602417E0,7.9881084E-1,6.4700317E0,3.4116788E0,5.7724066E0,0E0,9.5664215E-1,2.4250793E0,3.9818165E0,1.2016422E1,1.1883433E1,1.826007E1,1.3087799E1,1.0058838E1,0E0,9.8521996E-1,1.6414433E0,8.498272E0,0E0,0E0,0E0,3.5164108E0,7.4977703E0,4.451087E0,1.5311152E0,2.4146805E0,0E0,1.434555E0,4.270831E0,6.513519E-1,3.7477405E0,5.2572374E0,1.485594E0,1.3596251E1,0E0,6.1153355E0,1.8153853E0,0E0,0E0,0E0,0E0,0E0,0E0,0E0,0E0,0E0,0E0,0E0,0E0,0E0,0E0,0E0,0E0,0E0,0E0,0E0,0E0,0E0,0E0,0E0,0E0,0E0,0E0,0E0,0E0,0E0,0E0,0E0,0E0,0E0,0E0,0E0,0E0,0E0,0E0,0E0,0E0],"parents":[2147483647,0,0,1,1,2,2,3,3,4,4,5,5,6,6,7,7,8,8,9,9,11,11,12,12,13,13,14,14,15,15,16,16,17,17,18,18,19,19,20,20,21,21,22,22,24,24,25,25,26,26,27,27,28,28,29,29,30,30,31,31,33,33,34,34,35,35,39,39,40,40,41,41,42,42,43,43,45,45,46,46,47,47,48,48,49,49,50,50,51,51,53,53,54,54],"right_children":[2,4,6,8,10,12,14,16,18,20,-1,22,24,26,28,30,32,34,36,38,40,42,44,-1,46,48,50,52,54,56,58,60,-1,62,64,66,-1,-1,-1,68,70,72,74,76,-1,78,80,82,84,86,88,90,-1,92,94,-1,-1,-1,-1,-1,-1,-1,-1,-1,-1,-1,-1,-1,-1,-1,-1,-1,-1,-1,-1,-1,-1,-1,-1,-1,-1,-1,-1,-1,-1,-1,-1,-1,-1,-1,-1,-1,-1,-1,-1],"split_conditions":[2E0,4E0,1.2367E2,1E0,1E0,1E0,1E0,2E0,1E0,3E0,6.581243E-1,1E0,2E0,7E0,7E0,1E0,5E0,3E0,1.9E1,2E0,1.9E1,3E0,1.4E1,-8.70715E-2,1.2176E2,6E0,1.3E1,1.5E1,1E0,2E0,2E0,1E0,7.6366687E-1,8E0,1E0,1E0,4.9292055E-1,-2.0578818E-1,5.9264254E-2,1E0,5E0,1E0,4E0,1.2267E2,-3.250513E-1,9E0,1E0,2E0,4E0,1E0,1E0,3E1,-3.4143484E-1,1E0,9E0,3.20498E-1,-1.766671E-1,3.8663577E-3,4.513341E-1,5.0051546E-1,-9.061815E-2,-3.2101193E-1,-5.4274067E-2,2.3975661E-1,-1.2553516E-1,-2.3732072E-1,3.0722082E-1,5.1561564E-1,6.065897E-2,-2.890654E-1,3.2795423E-1,5.523799E-1,-6.801254E-2,-1.5077499E-1,1.5649363E-1,-8.4591374E-2,2.64962E-1,1.4277598E-1,5.898403E-1,-8.88485E-2,4.4886908E-1,-3.0925393E-1,-2.5909227E-1,-2.8312543E-1,1.1557347E-1,-9.931354E-2,5.2417886E-1,-2.4283561E-1,-4.0455651E-4,-1.5560511E-1,3.2520205E-1,-3.8857713E-2,3.7190098E-1,5.2358005E-2,-3.0458426E-1],"split_indices":[0,7,13,23,8,8,8,1,8,5,0,12,7,10,7,28,5,11,2,1,9,4,9,0,13,5,9,0,23,12,6,18,0,12,0,28,0,0,0,21,6,24,6,13,0,2,10,1,12,3,23,2,0,3,2,0,0,0,0,0,0,0,0,0,0,0,0,0,0,0,0,0,0,0,0,0,0,0,0,0,0,0,0,0,0,0,0,0,0,0,0,0,0,0,0],"split_type":[0,0,0,0,0,0,0,0,0,0,0,0,0,0,0,0,0,0,0,0,0,0,0,0,0,0,0,0,0,0,0,0,0,0,0,0,0,0,0,0,0,0,0,0,0,0,0,0,0,0,0,0,0,0,0,0,0,0,0,0,0,0,0,0,0,0,0,0,0,0,0,0,0,0,0,0,0,0,0,0,0,0,0,0,0,0,0,0,0,0,0,0,0,0,0],"sum_hessian":[5.617316E2,1.6046835E2,4.0126328E2,1.1097445E2,4.9493908E1,3.3123325E1,3.6813995E2,8.47819E1,2.6192549E1,3.041552E1,1.907839E1,2.241271E1,1.0710616E1,2.6857605E2,9.956391E1,5.998061E1,2.4801289E1,1.465647E1,1.1536078E1,2.5158663E0,2.7899652E1,7.56672E0,1.484599E1,1.2693949E0,9.441221E0,2.5482605E2,1.3749999E1,7.973001E1,1.98339E1,2.82743E1,3.1706312E1,1.817001E1,6.631278E0,1.2129424E1,2.527047E0,8.559782E0,2.976297E0,1.302047E0,1.2138193E0,2.2386974E1,5.512677E0,3.7272782E0,3.839442E0,5.8769736E0,8.969017E0,5.631753E0,3.8094678E0,2.4814975E2,6.6762915E0,3.443523E0,1.0306476E1,4.930382E1,3.042619E1,1.3724843E1,6.109058E0,8.862877E0,1.9411423E1,7.716838E0,2.3989473E1,1.5423847E1,2.7461631E0,1.0210754E1,1.9186697E0,1.0796934E0,1.4473534E0,5.0788198E0,3.4809623E0,2.043161E1,1.9553647E0,1.9620334E0,3.550644E0,2.535328E0,1.1919503E0,1.9631482E0,1.8762938E0,4.120268E0,1.7567054E0,1.6561712E0,3.975582E0,2.0102654E0,1.7992024E0,1.6060307E2,8.7546684E1,3.2806678E0,3.3956237E0,2.4130714E0,1.0304514E0,7.1453342E0,3.1611419E0,4.425405E1,5.0497694E0,4.541391E0,9.183452E0,1.3083167E0,4.800741E0],"tree_param":{"num_deleted":"0","num_feature":"29","num_nodes":"95","size_leaf_vector":"1"}},{"base_weights":[-1.9320226E-1,6.7987597E-1,-6.092168E-1,3.89737E-1,1.0866116E0,2.2727981E-1,-6.9649315E-1,-3.3388183E-1,5.935763E-1,8.738167E-1,1.5427771E0,-1.2849648E-1,8.531712E-1,-8.236267E-1,-3.7894437E-1,-5.520439E-1,3.5524818E-1,8.556622E-1,1.2218286E-1,-2.532427E-1,9.651737E-1,7.2301936E-1,5.03554E-1,4.979018E-1,-5.2506393E-1,2.7479777E-1,1.2906071E0,-8.418024E-1,3.5992625E-1,-6.3908434E-1,2.2389139E-1,-8.548059E-1,5.3333604E-1,1.4165603E0,3.268885E-1,-3.5280555E-1,5.9185094E-1,1.5006706E0,6.8320477E-1,3.6794144E-1,-1.11832075E-1,-3.598805E-1,8.803665E-1,1.2296137E-1,-3.0212355E-1,-2.3748368E-1,4.206168E-1,9.6139066E-2,4.3576822E-1,-7.871787E-1,-3.3333686E-1,-2.1865495E-1,4.426349E-1,-7.5176966E-1,4.968817E-1,-4.088666E-1,1.4485462E0,9.547307E-2,-3.0194715E-1,2.9604286E-1,-1.3039805E-1,5.425888E-1,2.0233777E-1,-7.760917E-2,2.4414255E-1,-1.8195833E-1,3.9950767E-1,2.7555196E-2,4.4746414E-1,8.76882E-2,4.7625193E-1,1.0272282E-1,4.2566305E-1,5.612999E-2,-2.1000925E-1,1.02822535E-1,4.4666713E-1,-6.464639E-2,2.77997E-1,1.6316636E-1,-2.7588323E-1,-2.659289E-1,-1.5247639E-1,-3.6733426E-2,-2.829165E-1,4.552992E-1,-1.438871E-1,1.5845042E-1,-2.2626399E-1,-2.1765436E-1,5.901149E-1],"categories":[],"categories_nodes":[],"categories_segments":[],"categories_sizes":[],"default_left":[0,0,0,0,0,0,0,0,0,0,0,0,0,0,0,0,0,0,0,0,0,0,0,0,0,0,0,0,0,0,0,0,0,0,0,0,0,0,0,0,0,0,0,0,0,0,0,0,0,0,0,0,0,0,0,0,0,0,0,0,0,0,0,0,0,0,0,0,0,0,0,0,0,0,0,0,0,0,0,0,0,0,0,0,0,0,0,0,0,0,0],"id":2,"left_children":[1,3,5,7,9,11,13,15,17,19,21,23,25,27,29,31,-1,33,35,-1,37,39,-1,41,43,45,47,49,51,53,55,57,59,61,63,65,67,69,71,-1,-1,73,75,77,-1,79,-1,-1,-1,81,-1,-1,-1,83,85,87,89,-1,-1,-1,-1,-1,-1,-1,-1,-1,-1,-1,-1,-1,-1,-1,-1,-1,-1,-1,-1,-1,-1,-1,-1,-1,-1,-1,-1,-1,-1,-1,-1,-1,-1],"loss_changes":[1.8447147E2,1.8931244E1,2.525335E1,1.4547838E1,5.2259293E0,7.509122E0,1.2263809E1,7.946761E0,9.317415E0,8.424816E0,1.0381851E0,5.7402587E0,2.725381E0,5.0699615E0,1.4399983E1,7.0072336E0,0E0,1.4024162E1,6.548224E0,0E0,5.9968796E0,3.0123138E0,0E0,3.290293E0,4.494398E0,4.094042E0,5.810747E-1,2.3404083E0,5.9968276E0,8.536032E0,2.240243E1,3.1623278E0,2.607944E0,5.5893974E0,7.7503476E0,7.1138706E0,6.4586287E0,1.1315193E0,7.612364E0,0E0,0E0,7.830644E-1,1.6354127E0,2.065539E0,0E0,3.342693E0,0E0,0E0,0E0,4.6743164E0,0E0,0E0,0E0,6.9158936E0,7.064243E0,6.65587E0,1.2483631E1,0E0,0E0,0E0,0E0,0E0,0E0,0E0,0E0,0E0,0E0,0E0,0E0,0E0,0E0,0E0,0E0,0E0,0E0,0E0,0E0,0E0,0E0,0E0,0E0,0E0,0E0,0E0,0E0,0E0,0E0,0E0,0E0,0E0,0E0],"parents":[2147483647,0,0,1,1,2,2,3,3,4,4,5,5,6,6,7,7,8,8,9,9,10,10,11,11,12,12,13,13,14,14,15,15,17,17,18,18,20,20,21,21,23,23,24,24,25,25,26,26,27,27,28,28,29,29,30,30,31,31,32,32,33,33,34,34,35,35,36,36,37,37,38,38,41,41,42,42,43,43,45,45,49,49,53,53,54,54,55,55,56,56],"right_children":[2,4,6,8,10,12,14,16,18,20,22,24,26,28,30,32,-1,34,36,-1,38,40,-1,42,44,46,48,50,52,54,56,58,60,62,64,66,68,70,72,-1,-1,74,76,78,-1,80,-1,-1,-1,82,-1,-1,-1,84,86,88,90,-1,-1,-1,-1,-1,-1,-1,-1,-1,-1,-1,-1,-1,-1,-1,-1,-1,-1,-1,-1,-1,-1,-1,-1,-1,-1,-1,-1,-1,-1,-1,-1,-1,-1],"split_conditions":[2E0,1E0,1.2367E2,3E0,4E0,1E0,1E0,1.7594E2,1E0,3E0,1.4163E2,1E0,4E0,1.5E1,3E0,6E0,3.5524818E-1,1E0,3E0,-2.532427E-1,2E0,1.3468E2,5.03554E-1,1.1E1,1.4E1,5E0,7E0,2.2E1,1.6E1,1E1,1E0,1E0,1E0,1E0,2E0,1E0,1E0,1E1,6E0,3.6794144E-1,-1.11832075E-1,1E0,5E0,6E0,-3.0212355E-1,2E0,4.206168E-1,9.6139066E-2,4.3576822E-1,1.9342E2,-3.3333686E-1,-2.1865495E-1,4.426349E-1,8E0,1.5406E2,3E0,2E0,9.547307E-2,-3.0194715E-1,2.9604286E-1,-1.3039805E-1,5.425888E-1,2.0233777E-1,-7.760917E-2,2.4414255E-1,-1.8195833E-1,3.9950767E-1,2.7555196E-2,4.4746414E-1,8.76882E-2,4.7625193E-1,1.0272282E-1,4.2566305E-1,5.612999E-2,-2.1000925E-1,1.02822535E-1,4.4666713E-1,-6.464639E-2,2.77997E-1,1.6316636E-1,-2.7588323E-1,-2.659289E-1,-1.5247639E-1,-3.6733426E-2,-2.829165E-1,4.552992E-1,-1.438871E-1,1.5845042E-1,-2.2626399E-1,-2.1765436E-1,5.901149E-1],"split_indices":[0,8,13,6,7,8,8,13,15,5,13,12,6,11,1,7,0,14,7,0,12,13,0,2,9,7,2,0,2,7,28,12,14,27,1,20,19,2,12,0,0,27,6,7,0,6,0,0,0,13,0,0,0,0,13,12,6,0,0,0,0,0,0,0,0,0,0,0,0,0,0,0,0,0,0,0,0,0,0,0,0,0,0,0,0,0,0,0,0,0,0],"split_type":[0,0,0,0,0,0,0,0,0,0,0,0,0,0,0,0,0,0,0,0,0,0,0,0,0,0,0,0,0,0,0,0,0,0,0,0,0,0,0,0,0,0,0,0,0,0,0,0,0,0,0,0,0,0,0,0,0,0,0,0,0,0,0,0,0,0,0,0,0,0,0,0,0,0,0,0,0,0,0,0,0,0,0,0,0,0,0,0,0,0,0],"sum_hessian":[5.0574716E2,1.6300945E2,3.427377E2,9.62845E1,6.6724945E1,3.222966E1,3.1050803E2,2.102146E1,7.526305E1,4.748801E1,1.9236937E1,2.105566E1,1.1174E1,2.205965E2,8.9911545E1,1.89364E1,2.0850585E0,4.784625E1,2.7416796E1,1.9817296E0,4.550628E1,3.631529E0,1.5605408E1,8.063472E0,1.2992189E1,5.512985E0,5.6610146E0,2.1754443E2,3.052057E0,6.2766132E1,2.7145416E1,1.49723625E1,3.9640377E0,2.2403124E1,2.5443123E1,1.3754901E1,1.3661895E1,1.4205678E1,3.1300602E1,2.406589E0,1.2249401E0,2.5048056E0,5.5586658E0,5.8595076E0,7.132682E0,4.3331265E0,1.179859E0,1.2359706E0,4.425044E0,1.8412329E2,3.342114E1,1.7199636E0,1.3320935E0,5.740945E1,5.356681E0,1.8337093E1,8.808323E0,1.588634E0,1.3383729E1,2.6862059E0,1.2778318E0,1.3718276E1,8.684849E0,1.1764029E1,1.3679094E1,1.2510485E1,1.2444167E0,9.489987E0,4.1719084E0,1.2451181E0,1.296056E1,2.2392744E1,8.907859E0,1.1329341E0,1.3718714E0,3.7812257E0,1.7774402E0,4.6381745E0,1.2213333E0,2.1140997E0,2.2190268E0,1.3419429E2,4.9929012E1,1.3764528E1,4.364492E1,2.3480186E0,3.008662E0,4.7956347E0,1.3541459E1,1.6193238E0,7.1889987E0],"tree_param":{"num_deleted":"0","num_feature":"29","num_nodes":"91","size_leaf_vector":"1"}},{"base_weights":[-1.5838088E-1,5.1100457E-1,-5.1719874E-1,3.5051897E-1,9.790499E-1,1.08055614E-1,-6.2141013E-1,5.184045E-1,-1.9416226E-1,1.1670072E0,3.871076E-1,-2.5323176E-1,7.20088E-1,-5.3679967E-1,-3.256573E-1,2.8857318E-1,1.0212237E0,-6.629541E-1,3.7640938E-1,1.2176796E0,5.4407075E-2,-4.784934E-1,8.809057E-1,4.2524245E-1,-6.4943874E-1,8.8542587E-1,-1.5861464E-1,-3.4144062E-1,-7.6437867E-1,-1.14321955E-1,6.122922E-1,6.0025252E-2,1.1906003E0,-9.553834E-1,1.00343555E-1,-2.9142702E-2,3.5017782E-1,3.5567462E-1,1.2968198E0,-1.0131097E0,1.9223934E-1,3.1574357E-1,3.742699E-1,-5.41551E-2,1.1930255E0,1.3459893E-1,-7.9302007E-1,-7.329746E-2,9.9585336E-1,-5.5147004E-1,1.164159E-1,-9.7611725E-1,-4.6849394E-1,1.7636216E-1,-1.5150729E-1,1.05241425E-1,3.8461718E-1,-1.07346766E-1,2.3773567E-1,4.207713E-1,1.4507101E-1,-3.2641208E-1,5.9284717E-2,2.4907209E-1,-1.1112813E-1,-2.0905599E-1,2.0536625E-1,-1.4063907E-1,3.3005682E-1,4.057194E-1,1.8051314E-1,-7.5967126E-2,-3.7680614E-1,2.4332085E-1,-8.984401E-2,-1.5441127E-1,2.3673804E-1,4.1564636E-2,5.372693E-1,-1.1760004E-1,-3.0757228E-1,1.6257098E-1,4.112281E-1,-3.3636615E-2,-2.2148076E-1,-2.4618895E-1,1.7300582E-1,-3.026261E-1,9.094933E-2,1.4964096E-1,-2.0397131E-1],"categories":[],"categories_nodes":[],"categories_segments":[],"categories_sizes":[],"default_left":[0,0,0,0,0,0,0,0,0,0,0,0,0,0,0,0,0,0,0,0,0,0,0,0,0,0,0,0,0,0,0,0,0,0,0,0,0,0,0,0,0,0,0,0,0,0,0,0,0,0,0,0,0,0,0,0,0,0,0,0,0,0,0,0,0,0,0,0,0,0,0,0,0,0,0,0,0,0,0,0,0,0,0,0,0,0,0,0,0,0,0],"id":3,"left_children":[1,3,5,7,9,11,13,15,17,19,21,23,25,27,-1,29,31,33,35,37,-1,39,41,43,45,47,-1,49,51,53,55,57,59,61,63,65,-1,67,69,71,-1,73,-1,75,77,-1,79,-1,81,83,85,87,89,-1,-1,-1,-1,-1,-1,-1,-1,-1,-1,-1,-1,-1,-1,-1,-1,-1,-1,-1,-1,-1,-1,-1,-1,-1,-1,-1,-1,-1,-1,-1,-1,-1,-1,-1,-1,-1,-1],"loss_changes":[1.09445335E2,1.161021E1,1.9382149E1,1.1079466E1,4.0069923E0,9.734693E0,9.40065E0,1.0342447E1,8.010334E0,1.2735558E0,5.1893096E0,7.7773023E0,3.832759E0,9.387096E0,0E0,8.490885E0,4.5653305E0,3.7319794E0,4.435885E0,1.4681702E0,0E0,3.461555E0,1.1508646E0,4.0736275E0,3.1957612E0,2.0852299E0,0E0,1.1466981E1,5.772045E0,8.419695E0,5.84768E0,1.9116828E0,2.9427338E0,2.0310059E0,2.168965E0,5.2652683E0,0E0,2.8214226E0,1.7240143E-1,3.4056234E-1,0E0,1.5447813E0,0E0,3.3818E0,2.4187107E0,0E0,1.1151981E0,0E0,1.5796804E0,6.602852E0,1.6911829E1,2.6870346E0,9.213718E0,0E0,0E0,0E0,0E0,0E0,0E0,0E0,0E0,0E0,0E0,0E0,0E0,0E0,0E0,0E0,0E0,0E0,0E0,0E0,0E0,0E0,0E0,0E0,0E0,0E0,0E0,0E0,0E0,0E0,0E0,0E0,0E0,0E0,0E0,0E0,0E0,0E0,0E0],"parents":[2147483647,0,0,1,1,2,2,3,3,4,4,5,5,6,6,7,7,8,8,9,9,10,10,11,11,12,12,13,13,15,15,16,16,17,17,18,18,19,19,21,21,22,22,23,23,24,24,25,25,27,27,28,28,29,29,30,30,31,31,32,32,33,33,34,34,35,35,37,37,38,38,39,39,41,41,43,43,44,44,46,46,48,48,49,49,50,50,51,51,52,52],"right_children":[2,4,6,8,10,12,14,16,18,20,22,24,26,28,-1,30,32,34,36,38,-1,40,42,44,46,48,-1,50,52,54,56,58,60,62,64,66,-1,68,70,72,-1,74,-1,76,78,-1,80,-1,82,84,86,88,90,-1,-1,-1,-1,-1,-1,-1,-1,-1,-1,-1,-1,-1,-1,-1,-1,-1,-1,-1,-1,-1,-1,-1,-1,-1,-1,-1,-1,-1,-1,-1,-1,-1,-1,-1,-1,-1,-1],"split_conditions":[2E0,5E0,1.2785E2,1E0,1.8E1,1E0,2.2E1,2E0,1E0,3.2E1,3E0,1E0,4E0,1E0,-3.256573E-1,1E0,1.269E2,5E0,1.9E1,3E0,5.4407075E-2,1E0,2E0,1E0,1.2E1,2E0,-1.5861464E-1,1E0,3E0,2E0,1.7E1,4E0,1.8E1,3.5E1,1E0,1E0,3.5017782E-1,1E0,1E1,7E0,1.9223934E-1,1.522E2,3.742699E-1,2E0,1E0,1.3459893E-1,3E0,-7.329746E-2,3E0,3E0,3E0,2.038E2,2E0,1.7636216E-1,-1.5150729E-1,1.05241425E-1,3.8461718E-1,-1.07346766E-1,2.3773567E-1,4.207713E-1,1.4507101E-1,-3.2641208E-1,5.9284717E-2,2.4907209E-1,-1.1112813E-1,-2.0905599E-1,2.0536625E-1,-1.4063907E-1,3.3005682E-1,4.057194E-1,1.8051314E-1,-7.5967126E-2,-3.7680614E-1,2.4332085E-1,-8.984401E-2,-1.5441127E-1,2.3673804E-1,4.1564636E-2,5.372693E-1,-1.1760004E-1,-3.0757228E-1,1.6257098E-1,4.112281E-1,-3.3636615E-2,-2.2148076E-1,-2.4618895E-1,1.7300582E-1,-3.026261E-1,9.094933E-2,1.4964096E-1,-2.0397131E-1],"split_indices":[0,7,13,23,9,8,0,1,8,2,12,12,11,23,0,28,13,6,2,5,0,28,1,28,9,7,0,8,1,12,2,5,9,2,0,28,0,23,7,2,0,13,0,1,3,0,4,0,4,6,6,13,12,0,0,0,0,0,0,0,0,0,0,0,0,0,0,0,0,0,0,0,0,0,0,0,0,0,0,0,0,0,0,0,0,0,0,0,0,0,0],"split_type":[0,0,0,0,0,0,0,0,0,0,0,0,0,0,0,0,0,0,0,0,0,0,0,0,0,0,0,0,0,0,0,0,0,0,0,0,0,0,0,0,0,0,0,0,0,0,0,0,0,0,0,0,0,0,0,0,0,0,0,0,0,0,0,0,0,0,0,0,0,0,0,0,0,0,0,0,0,0,0,0,0,0,0,0,0,0,0,0,0,0,0],"sum_hessian":[4.5356598E2,1.5813544E2,2.9543054E2,1.1906036E2,3.9075077E1,4.21999E1,2.5323064E2,9.1045815E1,2.8014545E1,2.8920553E1,1.0154525E1,2.6904322E1,1.529558E1,2.1600787E2,3.7222763E1,6.356506E1,2.7480755E1,1.5290053E1,1.2724492E1,2.7282547E1,1.6380064E0,3.6998622E0,6.4546623E0,9.891905E0,1.7012417E1,1.3764219E1,1.5313607E0,1.1757723E2,9.843065E1,2.86075E1,3.4957558E1,4.319925E0,2.316083E1,1.0872865E1,4.4171886E0,9.047854E0,3.6766381E0,2.7561753E0,2.4526371E1,2.568103E0,1.1317593E0,3.272162E0,3.1825004E0,6.661797E0,3.2301073E0,1.7215214E0,1.52908945E1,1.1176226E0,1.2646597E1,8.046268E1,3.711455E1,5.603347E1,4.239718E1,1.004654E1,1.856096E1,2.62377E1,8.71986E0,3.0763378E0,1.2435869E0,1.7061861E1,6.0989676E0,9.801504E0,1.0713603E0,1.4325477E0,2.984641E0,4.686719E0,4.361135E0,1.4835892E0,1.2725862E0,2.1834948E1,2.6914232E0,1.1168311E0,1.451272E0,1.6363659E0,1.6357961E0,4.5606756E0,2.1011214E0,1.6144361E0,1.615671E0,6.593203E0,8.697692E0,6.8263955E0,5.8202014E0,2.4481915E1,5.5980762E1,1.1967487E1,2.5147064E1,5.484574E1,1.18773E0,7.360445E0,3.503673E1],"tree_param":{"num_deleted":"0","num_feature":"29","num_nodes":"91","size_leaf_vector":"1"}},{"base_weights":[-1.3080788E-1,3.9439064E-1,-4.355066E-1,1.7204018E-1,7.306034E-1,8.347844E-2,-5.3043354E-1,-3.547177E-1,3.1328654E-1,5.609286E-1,1.1518049E0,-1.9679603E-1,5.153916E-1,-4.4837752E-1,-3.139451E-1,-6.090603E-1,5.1450086E-1,4.762719E-1,-8.6939074E-2,2.708556E-1,1.0134504E0,5.0211465E-1,3.7831745E-1,3.4262168E-1,-5.6105727E-1,6.562368E-1,-1.951825E-1,-5.8804715E-1,-9.6135974E-2,-9.3053025E-1,9.679775E-2,3.6691916E-1,-1.0894658E-1,3.26334E-1,1.2421253E0,-7.50464E-1,6.392068E-1,3.6544815E-2,1.1798056E0,2.6906535E-1,3.696414E-1,2.8323376E-1,-8.623663E-2,-3.450533E-2,8.704918E-1,-4.9021836E-2,-2.8891325E-1,2.6591244E-1,1.339521E0,-7.1502376E-1,7.9029776E-2,-1.734002E-1,4.628528E-1,-3.3730114E-1,-2.6843539E-2,3.968249E-1,-1.5654467E-1,2.1302675E-1,-6.95565E-2,8.0198444E-2,4.2258695E-1,-3.0037495E-1,-2.818502E-2,2.9645285E-1,-1.0329698E-1,1.9091113E-1,-7.439078E-2,4.365933E-1,3.3114705E-2,3.5206136E-1,-1.8219665E-1,-1.2762673E-1,1.8085262E-1,3.5422102E-1,2.5666344E-3,-1.2302696E-1,1.816854E-1,-7.077117E-2,2.0430626E-1,4.6912557E-1,1.6497934E-1,-2.3990981E-1,-4.7046788E-2,1.8960011E-1,-2.1366568E-1,-1.0405145E-1,1.552738E-1],"categories":[],"categories_nodes":[],"categories_segments":[],"categories_sizes":[],"default_left":[0,0,0,0,0,0,0,0,0,0,0,0,0,0,0,0,0,0,0,0,0,0,0,0,0,0,0,0,0,0,0,0,0,0,0,0,0,0,0,0,0,0,0,0,0,0,0,0,0,0,0,0,0,0,0,0,0,0,0,0,0,0,0,0,0,0,0,0,0,0,0,0,0,0,0,0,0,0,0,0,0,0,0,0,0,0,0],"id":4,"left_children":[1,3,5,7,9,11,13,15,17,19,21,23,25,27,-1,29,31,33,35,37,39,41,-1,43,45,47,-1,49,51,53,55,-1,-1,57,59,61,63,65,67,69,-1,-1,-1,71,73,75,-1,77,79,81,83,85,-1,-1,-1,-1,-1,-1,-1,-1,-1,-1,-1,-1,-1,-1,-1,-1,-1,-1,-1,-1,-1,-1,-1,-1,-1,-1,-1,-1,-1,-1,-1,-1,-1,-1,-1],"loss_changes":[6.590557E1,1.1187929E1,1.2874416E1,6.986105E0,3.6373959E0,5.080748E0,8.859158E0,4.736502E0,4.8290496E0,5.589653E0,5.210781E-1,5.235939E0,3.1307302E0,9.380592E0,0E0,3.7061272E0,3.5977547E0,5.601445E0,1.11207075E1,6.0455427E0,2.4498653E0,1.6682361E0,0E0,2.2134345E0,3.1846328E0,3.6942863E0,0E0,1.1674526E1,7.3159738E0,1.6995039E0,5.1589856E0,0E0,0E0,9.825836E0,9.556284E-1,1.8816924E0,4.144878E0,4.2128515E0,1.5562391E0,4.8022075E0,0E0,0E0,0E0,2.0900052E0,1.2222834E0,2.129648E0,0E0,2.4340103E0,7.378101E-2,5.32568E0,1.0440803E1,6.657336E0,0E0,0E0,0E0,0E0,0E0,0E0,0E0,0E0,0E0,0E0,0E0,0E0,0E0,0E0,0E0,0E0,0E0,0E0,0E0,0E0,0E0,0E0,0E0,0E0,0E0,0E0,0E0,0E0,0E0,0E0,0E0,0E0,0E0,0E0,0E0],"parents":[2147483647,0,0,1,1,2,2,3,3,4,4,5,5,6,6,7,7,8,8,9,9,10,10,11,11,12,12,13,13,15,15,16,16,17,17,18,18,19,19,20,20,21,21,23,23,24,24,25,25,27,27,28,28,29,29,30,30,33,33,34,34,35,35,36,36,37,37,38,38,39,39,43,43,44,44,45,45,47,47,48,48,49,49,50,50,51,51],"right_children":[2,4,6,8,10,12,14,16,18,20,22,24,26,28,-1,30,32,34,36,38,40,42,-1,44,46,48,-1,50,52,54,56,-1,-1,58,60,62,64,66,68,70,-1,-1,-1,72,74,76,-1,78,80,82,84,86,-1,-1,-1,-1,-1,-1,-1,-1,-1,-1,-1,-1,-1,-1,-1,-1,-1,-1,-1,-1,-1,-1,-1,-1,-1,-1,-1,-1,-1,-1,-1,-1,-1,-1,-1],"split_conditions":[2E0,1E0,1.2785E2,3E0,4E0,1E0,2.2E1,5E0,1.8E1,1.7E1,1E0,1E0,1.5E1,6E0,-3.139451E-1,1.9E1,1.4E1,3E0,5E0,3E0,1.3E1,1.8E1,3.7831745E-1,1E0,1.4E1,5E0,-1.951825E-1,2.7E1,6E0,6E0,2E0,3.6691916E-1,-1.0894658E-1,3E0,1.5044E2,1.7E1,1.6762E2,2E0,1.5E1,1E0,3.696414E-1,2.8323376E-1,-8.623663E-2,2E0,1.5E1,4E0,-2.8891325E-1,3E0,8E0,1E0,7E0,5E0,4.628528E-1,-3.3730114E-1,-2.6843539E-2,3.968249E-1,-1.5654467E-1,2.1302675E-1,-6.95565E-2,8.0198444E-2,4.2258695E-1,-3.0037495E-1,-2.818502E-2,2.9645285E-1,-1.0329698E-1,1.9091113E-1,-7.439078E-2,4.365933E-1,3.3114705E-2,3.5206136E-1,-1.8219665E-1,-1.2762673E-1,1.8085262E-1,3.5422102E-1,2.5666344E-3,-1.2302696E-1,1.816854E-1,-7.077117E-2,2.0430626E-1,4.6912557E-1,1.6497934E-1,-2.3990981E-1,-4.7046788E-2,1.8960011E-1,-2.1366568E-1,-1.0405145E-1,1.552738E-1],"split_indices":[0,8,13,6,7,8,0,5,9,9,10,12,0,7,0,9,9,11,6,10,2,9,0,28,9,7,0,2,5,7,12,0,0,12,13,2,13,12,2,3,0,0,0,1,2,5,0,4,7,20,12,6,0,0,0,0,0,0,0,0,0,0,0,0,0,0,0,0,0,0,0,0,0,0,0,0,0,0,0,0,0,0,0,0,0,0,0],"split_type":[0,0,0,0,0,0,0,0,0,0,0,0,0,0,0,0,0,0,0,0,0,0,0,0,0,0,0,0,0,0,0,0,0,0,0,0,0,0,0,0,0,0,0,0,0,0,0,0,0,0,0,0,0,0,0,0,0,0,0,0,0,0,0,0,0,0,0,0,0,0,0,0,0,0,0,0,0,0,0,0,0,0,0,0,0,0,0],"sum_hessian":[4.0976614E2,1.5033853E2,2.594276E2,9.1402336E1,5.893619E1,4.0132977E1,2.1929463E2,1.9007029E1,7.239531E1,4.3674362E1,1.5261832E1,2.4669168E1,1.5463806E1,1.908214E2,2.8473242E1,1.4935921E1,4.071108E0,5.13101E1,2.1085209E1,2.7588366E1,1.6085995E1,3.002558E0,1.22592745E1,9.967768E0,1.4701402E1,1.4187266E1,1.2765402E0,1.361616E2,5.4659786E1,1.0043499E1,4.892422E0,2.0347915E0,2.0363164E0,4.410197E1,7.208128E0,1.1000173E1,1.0085036E1,2.276116E1,4.8272066E0,4.1591463E0,1.1926848E1,1.7994846E0,1.2030734E0,6.359193E0,3.6085746E0,6.959107E0,7.742295E0,9.913419E0,4.273847E0,1.1432771E2,2.1833897E1,5.3052982E1,1.606805E0,7.8888245E0,2.1546743E0,1.2590398E0,3.633382E0,2.5973232E1,1.8128738E1,1.4316752E0,5.776453E0,7.5796695E0,3.4205034E0,7.4403715E0,2.6446648E0,6.9249563E0,1.5836203E1,3.5514452E0,1.2757617E0,1.8799196E0,2.2792268E0,4.147707E0,2.2114856E0,2.3815103E0,1.2270645E0,4.7260227E0,2.233084E0,4.683425E0,5.229994E0,2.564975E0,1.7088722E0,9.889353E1,1.5434175E1,1.2970571E1,8.863326E0,4.2806477E1,1.0246507E1],"tree_param":{"num_deleted":"0","num_feature":"29","num_nodes":"87","size_leaf_vector":"1"}},{"base_weights":[-1.0295948E-1,3.1272018E-1,-3.5750866E-1,1.2964334E-1,5.9959334E-1,-2.8268072E-1,-3.0479968E-1,1.0291856E-2,6.416555E-1,4.4689956E-1,1.026445E0,-9.143303E-2,-6.1252E-1,-7.8352705E-2,6.7143965E-1,1.191022E-1,1.0506634E0,-2.4398798E-1,5.1728666E-1,4.264242E-1,3.4522954E-1,-3.0957466E-1,2.8519204E-1,-8.788155E-1,-2.9282978E-1,-1.7643282E-1,5.593671E-1,1.0767319E0,-3.5125965E-1,6.09301E-1,-3.2440028E-1,3.466888E-1,5.398502E-2,3.047065E-1,9.790368E-1,2.405562E-1,-5.296797E-2,-5.7944345E-1,-6.852453E-2,-3.9698437E-1,5.3437626E-1,-9.2177594E-1,1.06014684E-1,4.9423552E-1,-5.2519834E-1,-1.1953267E-1,7.1395755E-2,-8.2740545E-2,2.913215E-1,3.8934404E-1,4.9971852E-2,-1.8400298E-1,2.5012165E-2,2.6947176E-1,-1.3741961E-1,1.4631131E-1,-1.1497482E-1,3.2969123E-1,2.587427E-2,-2.4173465E-1,-5.1175538E-3,1.9830354E-1,-9.7329594E-2,2.2897018E-1,-2.679923E-1,5.2543078E-2,3.7026763E-1,-2.891727E-1,-1.9260703E-2,4.859307E-1,-5.828979E-3,-2.8236032E-1,1.20875336E-1],"categories":[],"categories_nodes":[],"categories_segments":[],"categories_sizes":[],"default_left":[0,0,0,0,0,0,0,0,0,0,0,0,0,0,0,0,0,0,0,0,0,0,0,0,0,0,0,0,0,0,0,0,0,0,0,0,0,0,0,0,0,0,0,0,0,0,0,0,0,0,0,0,0,0,0,0,0,0,0,0,0,0,0,0,0,0,0,0,0,0,0,0,0],"id":5,"left_children":[1,3,5,7,9,11,-1,13,15,17,19,21,23,25,27,29,31,-1,33,35,-1,37,39,41,43,45,47,49,51,53,-1,-1,-1,55,57,-1,-1,59,61,63,65,67,-1,69,71,-1,-1,-1,-1,-1,-1,-1,-1,-1,-1,-1,-1,-1,-1,-1,-1,-1,-1,-1,-1,-1,-1,-1,-1,-1,-1,-1,-1],"loss_changes":[3.9657288E1,7.4051237E0,1.115708E1,5.386206E0,3.140932E0,1.3187607E1,0E0,4.3064604E0,3.4368558E0,4.1859293E0,5.3719616E-1,1.110298E1,6.287466E0,4.157836E0,3.9783235E0,5.628429E0,6.3478374E-1,0E0,3.7079477E0,1.0366268E0,0E0,5.5141315E0,8.65922E0,2.5195007E0,6.92338E0,5.339698E0,3.3247087E0,1.08499E0,4.1783267E-1,2.4580412E0,0E0,0E0,0E0,3.8881407E0,1.2345219E0,0E0,0E0,5.0963936E0,8.845249E0,8.668099E0,9.041574E0,1.3950691E0,0E0,5.1309867E0,1.142778E1,0E0,0E0,0E0,0E0,0E0,0E0,0E0,0E0,0E0,0E0,0E0,0E0,0E0,0E0,0E0,0E0,0E0,0E0,0E0,0E0,0E0,0E0,0E0,0E0,0E0,0E0,0E0,0E0],"parents":[2147483647,0,0,1,1,2,2,3,3,4,4,5,5,7,7,8,8,9,9,10,10,11,11,12,12,13,13,14,14,15,15,16,16,18,18,19,19,21,21,22,22,23,23,24,24,25,25,26,26,27,27,28,28,29,29,33,33,34,34,37,37,38,38,39,39,40,40,41,41,43,43,44,44],"right_children":[2,4,6,8,10,12,-1,14,16,18,20,22,24,26,28,30,32,-1,34,36,-1,38,40,42,44,46,48,50,52,54,-1,-1,-1,56,58,-1,-1,60,62,64,66,68,-1,70,72,-1,-1,-1,-1,-1,-1,-1,-1,-1,-1,-1,-1,-1,-1,-1,-1,-1,-1,-1,-1,-1,-1,-1,-1,-1,-1,-1,-1],"split_conditions":[2E0,1E0,2.2E1,7E0,4E0,1E0,-3.0479968E-1,1E0,1.5E1,3E0,2E0,1E0,3E0,1E0,1E0,1E0,1E1,-2.4398798E-1,1.8E1,1.8E1,3.4522954E-1,1.4E1,3E0,2.038E2,2E0,1.7E1,1.5E1,2.4E1,1.7E1,1.8E1,-3.2440028E-1,3.466888E-1,5.398502E-2,1.6255E2,1E0,2.405562E-1,-5.296797E-2,6E0,1.3E1,2E0,1E0,7E0,1.06014684E-1,5E0,1E0,-1.1953267E-1,7.1395755E-2,-8.2740545E-2,2.913215E-1,3.8934404E-1,4.9971852E-2,-1.8400298E-1,2.5012165E-2,2.6947176E-1,-1.3741961E-1,1.4631131E-1,-1.1497482E-1,3.2969123E-1,2.587427E-2,-2.4173465E-1,-5.1175538E-3,1.9830354E-1,-9.7329594E-2,2.2897018E-1,-2.679923E-1,5.2543078E-2,3.7026763E-1,-2.891727E-1,-1.9260703E-2,4.859307E-1,-5.828979E-3,-2.8236032E-1,1.20875336E-1],"split_indices":[0,8,0,7,7,23,0,20,2,5,11,8,1,16,23,27,7,0,9,9,0,2,6,13,12,2,9,2,2,9,0,0,0,13,21,0,0,7,9,12,28,10,0,0,28,0,0,0,0,0,0,0,0,0,0,0,0,0,0,0,0,0,0,0,0,0,0,0,0,0,0,0,0],"split_type":[0,0,0,0,0,0,0,0,0,0,0,0,0,0,0,0,0,0,0,0,0,0,0,0,0,0,0,0,0,0,0,0,0,0,0,0,0,0,0,0,0,0,0,0,0,0,0,0,0,0,0,0,0,0,0,0,0,0,0,0,0,0,0,0,0,0,0,0,0,0,0,0,0],"sum_hessian":[3.7273734E2,1.4147676E2,2.3126056E2,8.7248436E1,5.422833E1,2.0894612E2,2.2314432E1,7.158246E1,1.5665973E1,4.1448353E1,1.2779974E1,1.3306783E2,7.5878296E1,6.3896866E1,7.6855955E0,7.4451537E0,8.2208185E0,1.6342674E0,3.9814087E1,2.9537892E0,9.826185E0,8.437549E1,4.869234E1,4.0441982E1,3.5436314E1,5.6006508E1,7.890357E0,5.4664335E0,2.2191622E0,5.6360884E0,1.8090656E0,7.0443854E0,1.1764333E0,2.8399462E1,1.1414626E1,1.6171257E0,1.3366636E0,3.91458E1,4.522969E1,1.2868874E1,3.5823467E1,3.9322918E1,1.1190646E0,7.820437E0,2.761588E1,3.649449E1,1.9512016E1,2.7143075E0,5.1760497E0,4.0554323E0,1.4110011E0,1.127879E0,1.0912833E0,4.56011E0,1.0759782E0,2.2662315E1,5.7371454E0,9.859233E0,1.5553935E0,2.76036E1,1.15422E1,1.1334497E1,3.389519E1,3.6945705E0,9.174303E0,2.4498594E1,1.1324873E1,3.7363247E1,1.9596695E0,1.7758583E0,6.0445786E0,1.9059072E1,8.556806E0],"tree_param":{"num_deleted":"0","num_feature":"29","num_nodes":"73","size_leaf_vector":"1"}},{"base_weights":[-8.404311E-2,2.4624841E-1,-2.967141E-1,1.9141188E-1,9.0968156E-1,-2.3067783E-1,-2.961906E-1,-1.9231868E-1,3.149588E-1,1.1546905E0,2.1342087E-1,-7.50768E-2,-5.284014E-1,3.2560986E-1,-4.6106026E-1,4.6670076E-1,7.348801E-2,1.13101706E-1,3.7533158E-1,2.48347E-1,-1.08728856E-1,-1.6096896E-1,7.1879417E-1,-8.067298E-1,-2.3528548E-1,-4.6748048E-1,6.488989E-1,-7.443656E-1,5.047447E-1,1.9610699E-1,7.4158776E-1,-2.184226E-1,3.524245E-1,-3.22753E-1,3.5120347E-1,9.2401046E-1,-1.8829168E-1,-9.080128E-1,8.3748635E-4,-6.2684345E-1,1.4381501E-1,-2.186727E-1,-2.987415E-2,2.5533497E-1,-5.892024E-2,-2.9685482E-1,1.5374815E-1,-6.4197935E-2,2.7320048E-1,9.33283E-2,-2.95248E-1,4.8635125E-2,2.714509E-1,-1.088823E-1,2.2632708E-1,1.7435094E-2,2.8961506E-1,-1.1318045E-1,3.321966E-1,3.9826255E-2,3.826687E-1,1.2722932E-1,7.546535E-1,-2.8987145E-1,-5.0822436E-3,-2.3514459E-1,4.288688E-1,-2.528842E-1,2.804647E-1,1.6539201E-1,-2.2909698E-1],"categories":[],"categories_nodes":[],"categories_segments":[],"categories_sizes":[],"default_left":[0,0,0,0,0,0,0,0,0,0,0,0,0,0,0,0,0,0,0,0,0,0,0,0,0,0,0,0,0,0,0,0,0,0,0,0,0,0,0,0,0,0,0,0,0,0,0,0,0,0,0,0,0,0,0,0,0,0,0,0,0,0,0,0,0,0,0,0,0,0,0],"id":6,"left_children":[1,3,5,7,9,11,-1,13,15,17,19,21,23,25,27,29,31,-1,-1,-1,-1,33,35,37,39,41,43,45,47,49,51,53,55,57,59,61,-1,63,65,67,69,-1,-1,-1,-1,-1,-1,-1,-1,-1,-1,-1,-1,-1,-1,-1,-1,-1,-1,-1,-1,-1,-1,-1,-1,-1,-1,-1,-1,-1,-1],"loss_changes":[2.4189486E1,4.7380543E0,9.317301E0,6.033167E0,1.466608E0,8.87074E0,0E0,4.5072126E0,3.4714441E0,6.827927E-2,1.6588454E0,8.808678E0,5.182747E0,3.1954927E0,6.1281056E0,4.2110424E0,3.1799932E0,0E0,0E0,0E0,0E0,9.713425E0,4.069637E0,2.7299843E0,5.060929E0,2.9749215E-1,1.6085067E0,5.6401815E0,1.7598838E0,4.4962783E0,2.5677185E0,2.9786816E0,3.5284567E0,7.3224764E0,5.543244E0,7.9743223E0,0E0,1.5219574E0,6.40917E0,6.410513E0,7.0133724E0,0E0,0E0,0E0,0E0,0E0,0E0,0E0,0E0,0E0,0E0,0E0,0E0,0E0,0E0,0E0,0E0,0E0,0E0,0E0,0E0,0E0,0E0,0E0,0E0,0E0,0E0,0E0,0E0,0E0,0E0],"parents":[2147483647,0,0,1,1,2,2,3,3,4,4,5,5,7,7,8,8,9,9,10,10,11,11,12,12,13,13,14,14,15,15,16,16,21,21,22,22,23,23,24,24,25,25,26,26,27,27,28,28,29,29,30,30,31,31,32,32,33,33,34,34,35,35,37,37,38,38,39,39,40,40],"right_children":[2,4,6,8,10,12,-1,14,16,18,20,22,24,26,28,30,32,-1,-1,-1,-1,34,36,38,40,42,44,46,48,50,52,54,56,58,60,62,-1,64,66,68,70,-1,-1,-1,-1,-1,-1,-1,-1,-1,-1,-1,-1,-1,-1,-1,-1,-1,-1,-1,-1,-1,-1,-1,-1,-1,-1,-1,-1,-1,-1],"split_conditions":[2E0,4E0,2.2E1,3E0,1E0,1E0,-2.961906E-1,2E0,1E0,9E0,1.5E1,1E0,3E0,4E0,6E0,1E0,3E0,1.13101706E-1,3.7533158E-1,2.48347E-1,-1.08728856E-1,7E0,9E0,2.1E1,4E0,3E0,1E0,3.1E1,9E0,3.3E1,1E1,1E0,1E0,1.4E1,5E0,5E0,-1.8829168E-1,7E0,1.6E1,1.9342E2,4E0,-2.186727E-1,-2.987415E-2,2.5533497E-1,-5.892024E-2,-2.9685482E-1,1.5374815E-1,-6.4197935E-2,2.7320048E-1,9.33283E-2,-2.95248E-1,4.8635125E-2,2.714509E-1,-1.088823E-1,2.2632708E-1,1.7435094E-2,2.8961506E-1,-1.1318045E-1,3.321966E-1,3.9826255E-2,3.826687E-1,1.2722932E-1,7.546535E-1,-2.8987145E-1,-5.0822436E-3,-2.3514459E-1,4.288688E-1,-2.528842E-1,2.804647E-1,1.6539201E-1,-2.2909698E-1],"split_indices":[0,10,0,6,27,23,0,12,15,2,2,20,1,5,7,28,7,0,0,0,0,7,11,9,7,5,27,2,2,2,2,20,19,11,5,11,0,10,2,13,6,0,0,0,0,0,0,0,0,0,0,0,0,0,0,0,0,0,0,0,0,0,0,0,0,0,0,0,0,0,0],"split_type":[0,0,0,0,0,0,0,0,0,0,0,0,0,0,0,0,0,0,0,0,0,0,0,0,0,0,0,0,0,0,0,0,0,0,0,0,0,0,0,0,0,0,0,0,0,0,0,0,0,0,0,0,0,0,0,0,0,0,0,0,0,0,0,0,0,0,0,0,0,0,0],"sum_hessian":[3.4232642E2,1.3402274E2,2.0830368E2,1.24980865E2,9.041863E0,1.9134106E2,1.6962624E1,3.0303398E1,9.467747E1,6.201267E0,2.8405964E0,1.26486725E2,6.485433E1,1.0279932E1,2.0023466E1,5.7568363E1,3.7109104E1,1.2256193E0,4.9756474E0,1.162598E0,1.6779984E0,1.148571E2,1.1629625E1,3.23675E1,3.2486835E1,2.8477757E0,7.432156E0,1.5659308E1,4.364158E0,2.9874176E1,2.769419E1,1.8238853E1,1.887025E1,8.7566574E1,2.7290527E1,1.0363769E1,1.2658563E0,2.864992E1,3.71758E0,1.5659377E1,1.6827457E1,1.0911436E0,1.7566321E0,5.991865E0,1.440291E0,1.3281466E1,2.377843E0,1.7458099E0,2.6183484E0,2.7893114E1,1.9810617E0,6.525216E0,2.1168972E1,1.6425709E1,1.8131459E0,1.3488612E1,5.3816385E0,8.506023E1,2.5063474E0,2.299892E1,4.291607E0,8.850256E0,1.5135124E0,2.681349E1,1.83643E0,2.6910496E0,1.0265304E0,1.4160205E1,1.4991723E0,1.188368E1,4.943776E0],"tree_param":{"num_deleted":"0","num_feature":"29","num_nodes":"71","size_leaf_vector":"1"}},{"base_weights":[-6.595504E-2,1.904397E-1,-2.36209E-1,3.0227449E-2,4.606027E-1,-1.7950405E-1,-2.8786093E-1,6.1242807E-1,-2.679952E-2,3.299578E-1,8.86447E-1,1.6067946E-1,-2.8304982E-1,1.1768396E0,-2.399534E-1,-1.0885484E-1,5.2185804E-1,-2.1055396E-1,3.8527498E-1,2.7793348E-1,3.084393E-1,-7.460438E-2,1.1957543E0,-3.7166855E-1,3.0566835E-1,1.1477381E-1,4.1256744E-1,1.7304125E-1,-2.4985762E-1,-3.2107085E-1,2.5439364E-1,-1.06002666E-1,1.0927533E0,2.1961881E-1,7.8559273E-1,2.0440142E-1,-7.902715E-2,1.121075E-1,-2.8770044E-1,1.8858392E0,-3.1028438E-1,-5.434762E-1,-1.3038251E-1,-2.3166503E-1,7.385173E-1,-1.1661499E-1,9.9771544E-2,3.0740706E-2,2.5263414E-1,1.3207692E-1,-3.622748E-1,3.7576374E-1,9.548694E-2,2.3375625E-2,2.5114703E-1,4.33826E-2,2.8625423E-1,1.0532596E-1,-1.7817688E-1,7.20286E-2,7.582945E-1,-1.9944803E-1,7.9934895E-2,-2.0696019E-1,-7.82036E-3,4.0614873E-2,-1.4755785E-1,-1.7936245E-1,2.6195988E-1,3.967763E-1,-5.1453514E-3],"categories":[],"categories_nodes":[],"categories_segments":[],"categories_sizes":[],"default_left":[0,0,0,0,0,0,0,0,0,0,0,0,0,0,0,0,0,0,0,0,0,0,0,0,0,0,0,0,0,0,0,0,0,0,0,0,0,0,0,0,0,0,0,0,0,0,0,0,0,0,0,0,0,0,0,0,0,0,0,0,0,0,0,0,0,0,0,0,0,0,0],"id":7,"left_children":[1,3,5,7,9,11,-1,13,15,17,19,21,23,25,27,29,31,-1,33,35,-1,37,39,41,43,-1,-1,-1,-1,45,47,49,51,53,55,-1,-1,57,-1,59,61,63,65,67,69,-1,-1,-1,-1,-1,-1,-1,-1,-1,-1,-1,-1,-1,-1,-1,-1,-1,-1,-1,-1,-1,-1,-1,-1,-1,-1],"loss_changes":[1.41312275E1,5.5836596E0,7.800027E0,2.7472668E0,2.3819723E0,6.4376445E0,0E0,3.8327627E0,3.472585E0,2.4609609E0,6.3614273E-1,1.0557448E1,7.390726E0,2.0014477E-1,2.3063204E0,5.2332983E0,3.7158506E0,0E0,2.2859054E0,9.197968E-1,0E0,6.0462246E0,8.920155E0,4.973633E0,4.5432215E0,0E0,0E0,0E0,0E0,2.0140343E0,2.164021E0,3.9584093E0,2.632594E-1,2.3507328E0,9.926362E-1,0E0,0E0,5.369957E0,0E0,5.3515396E0,8.6802566E-1,5.34173E0,5.054989E0,4.223461E0,4.7232285E0,0E0,0E0,0E0,0E0,0E0,0E0,0E0,0E0,0E0,0E0,0E0,0E0,0E0,0E0,0E0,0E0,0E0,0E0,0E0,0E0,0E0,0E0,0E0,0E0,0E0,0E0],"parents":[2147483647,0,0,1,1,2,2,3,3,4,4,5,5,7,7,8,8,9,9,10,10,11,11,12,12,13,13,14,14,15,15,16,16,18,18,19,19,21,21,22,22,23,23,24,24,29,29,30,30,31,31,32,32,33,33,34,34,37,37,39,39,40,40,41,41,42,42,43,43,44,44],"right_children":[2,4,6,8,10,12,-1,14,16,18,20,22,24,26,28,30,32,-1,34,36,-1,38,40,42,44,-1,-1,-1,-1,46,48,50,52,54,56,-1,-1,58,-1,60,62,64,66,68,70,-1,-1,-1,-1,-1,-1,-1,-1,-1,-1,-1,-1,-1,-1,-1,-1,-1,-1,-1,-1,-1,-1,-1,-1,-1,-1],"split_conditions":[2E0,1E0,2.2E1,1.2E1,4E0,2E0,-2.8786093E-1,1.3E1,1E0,3E0,1E0,5E0,5E0,7E0,1E0,1.7E1,1E0,-2.1055396E-1,1.8E1,1.8E1,3.084393E-1,1.9144E2,1E1,2E0,1E0,1.1477381E-1,4.1256744E-1,1.7304125E-1,-2.4985762E-1,1E0,1E0,5E0,1.5E1,3E0,1.2E1,2.0440142E-1,-7.902715E-2,1E0,-2.8770044E-1,1E0,2.6E1,5E0,1E0,2.9E1,1E0,-1.1661499E-1,9.9771544E-2,3.0740706E-2,2.5263414E-1,1.3207692E-1,-3.622748E-1,3.7576374E-1,9.548694E-2,2.3375625E-2,2.5114703E-1,4.33826E-2,2.8625423E-1,1.0532596E-1,-1.7817688E-1,7.20286E-2,7.582945E-1,-1.9944803E-1,7.9934895E-2,-2.0696019E-1,-7.82036E-3,4.0614873E-2,-1.4755785E-1,-1.7936245E-1,2.6195988E-1,3.967763E-1,-5.1453514E-3],"split_indices":[0,8,0,9,7,12,0,2,16,5,10,6,10,2,15,2,28,0,9,9,0,13,0,1,3,0,0,0,0,20,21,6,2,10,2,0,0,18,0,19,2,6,23,2,14,0,0,0,0,0,0,0,0,0,0,0,0,0,0,0,0,0,0,0,0,0,0,0,0,0,0],"split_type":[0,0,0,0,0,0,0,0,0,0,0,0,0,0,0,0,0,0,0,0,0,0,0,0,0,0,0,0,0,0,0,0,0,0,0,0,0,0,0,0,0,0,0,0,0,0,0,0,0,0,0,0,0,0,0,0,0,0,0,0,0,0,0,0,0,0,0,0,0,0,0],"sum_hessian":[3.216925E2,1.2832393E2,1.9336858E2,8.1251816E1,4.707212E1,1.8046896E2,1.2899624E1,6.3797994E0,7.487202E1,3.7379337E1,9.692783E0,4.19843E1,1.3848466E2,3.6092532E0,2.7705462E0,6.582853E1,9.0434885E0,1.3072957E0,3.607204E1,2.389944E0,7.302839E0,3.4964424E1,7.0198727E0,1.206866E2,1.7798063E1,1.3065963E0,2.3026571E0,1.1767159E0,1.5938305E0,4.1626007E1,2.4202518E1,4.6946816E0,4.3488064E0,2.660938E1,9.462661E0,1.2212951E0,1.168649E0,2.959057E1,5.3738546E0,4.6410866E0,2.378786E0,6.9760925E1,5.092568E1,8.148011E0,9.650051E0,3.8089424E1,3.5365841E0,2.0164406E1,4.038113E0,3.5397213E0,1.1549604E0,3.0932746E0,1.255532E0,2.2559143E1,4.050238E0,2.3574028E0,7.105258E0,2.2483147E1,7.1074233E0,1.687653E0,2.9534335E0,1.3785747E0,1.0002114E0,5.411639E1,1.5644531E1,2.9708698E1,2.121698E1,6.4642816E0,1.68373E0,5.019874E0,4.630177E0],"tree_param":{"num_deleted":"0","num_feature":"29","num_nodes":"71","size_leaf_vector":"1"}},{"base_weights":[-4.867997E-2,-1.9354896E-1,1.9544646E-1,-7.8131247E-1,-1.3541968E-1,1.061393E-1,7.770963E-1,-9.04038E-1,5.1055323E-2,-1.665772E-2,-4.282003E-1,1.099911E0,3.8229156E-2,-1.325518E-1,1.1315926E0,-2.1944702E-1,-3.0467585E-1,7.3594846E-2,-7.007226E-1,-6.826376E-1,-1.339642E-1,4.1930774E-1,6.8772E-2,-1.0293468E-1,4.6857396E-1,-2.458447E-1,2.7438918E-1,1.4143194E0,-6.908347E-2,-1.7313711E-1,9.35571E-2,-7.103586E-3,6.9066054E-1,-2.9662204E-1,-2.2740588E-1,2.374802E-4,-7.7779925E-1,3.9704502E-1,-4.3265203E-1,8.026674E-2,-2.9907495E-1,2.1580452E-2,1.2124333E0,3.991167E-1,4.9590412E-1,-5.131373E-2,9.5739596E-2,3.7327802E-1,-7.602039E-2,6.5613754E-2,-2.2557068E-1,-2.2090657E-1,2.3667793E-1,-2.4932352E-1,2.2047892E-2,2.530461E-1,-2.1084714E-1,-1.9230914E-1,1.258902E-1,-2.2148183E-2,3.229559E-1,-1.9917376E-1,-1.88442E-3,1.0527391E-1,-2.1400365E-1,5.3748995E-1,1.1144236E-1,-1.3110681E-1,3.1444207E-1],"categories":[],"categories_nodes":[],"categories_segments":[],"categories_sizes":[],"default_left":[0,0,0,0,0,0,0,0,0,0,0,0,0,0,0,0,0,0,0,0,0,0,0,0,0,0,0,0,0,0,0,0,0,0,0,0,0,0,0,0,0,0,0,0,0,0,0,0,0,0,0,0,0,0,0,0,0,0,0,0,0,0,0,0,0,0,0,0,0],"id":8,"left_children":[1,3,5,7,9,11,13,15,-1,17,19,21,23,25,27,29,-1,31,33,35,37,-1,-1,39,41,-1,-1,43,-1,-1,-1,45,47,-1,49,51,53,55,57,59,61,63,65,67,-1,-1,-1,-1,-1,-1,-1,-1,-1,-1,-1,-1,-1,-1,-1,-1,-1,-1,-1,-1,-1,-1,-1,-1,-1],"loss_changes":[1.0800875E1,6.436848E0,5.830768E0,2.141858E0,6.0941687E0,6.6959968E0,4.9850025E0,9.407768E-1,0E0,7.8228393E0,3.6964178E0,1.3260446E0,5.788509E0,4.417998E0,4.5203E0,8.2812333E-1,0E0,5.5874205E0,1.7881875E0,1.7475262E0,4.0904975E0,0E0,0E0,2.6101809E0,7.7941475E0,0E0,0E0,1.5602322E0,0E0,0E0,0E0,5.409994E0,7.0968122E0,0E0,1.7754507E0,3.0722952E0,1.131504E0,5.2163234E0,3.1622937E0,5.9133735E0,3.7314043E0,4.05259E0,3.625723E0,2.1198657E0,0E0,0E0,0E0,0E0,0E0,0E0,0E0,0E0,0E0,0E0,0E0,0E0,0E0,0E0,0E0,0E0,0E0,0E0,0E0,0E0,0E0,0E0,0E0,0E0,0E0],"parents":[2147483647,0,0,1,1,2,2,3,3,4,4,5,5,6,6,7,7,9,9,10,10,11,11,12,12,13,13,14,14,15,15,17,17,18,18,19,19,20,20,23,23,24,24,27,27,31,31,32,32,34,34,35,35,36,36,37,37,38,38,39,39,40,40,41,41,42,42,43,43],"right_children":[2,4,6,8,10,12,14,16,-1,18,20,22,24,26,28,30,-1,32,34,36,38,-1,-1,40,42,-1,-1,44,-1,-1,-1,46,48,-1,50,52,54,56,58,60,62,64,66,68,-1,-1,-1,-1,-1,-1,-1,-1,-1,-1,-1,-1,-1,-1,-1,-1,-1,-1,-1,-1,-1,-1,-1,-1,-1],"split_conditions":[1E0,3E0,1E0,1E0,1E0,1.2066E2,3E0,1.2785E2,5.1055323E-2,2.5706E2,4E0,3E0,5E0,1E0,1E1,1.2552E2,-3.0467585E-1,4E0,2.9392E2,2E0,4E0,4.1930774E-1,6.8772E-2,2E0,1.6E1,-2.458447E-1,2.7438918E-1,1E1,-6.908347E-2,-1.7313711E-1,9.35571E-2,2E0,1.4E1,-2.9662204E-1,2E1,3E0,1.9637E2,2.3E1,2.7E1,4E0,1E0,6E0,1E0,5E0,4.9590412E-1,-5.131373E-2,9.5739596E-2,3.7327802E-1,-7.602039E-2,6.5613754E-2,-2.2557068E-1,-2.2090657E-1,2.3667793E-1,-2.4932352E-1,2.2047892E-2,2.530461E-1,-2.1084714E-1,-1.9230914E-1,1.258902E-1,-2.2148183E-2,3.229559E-1,-1.9917376E-1,-1.88442E-3,1.0527391E-1,-2.1400365E-1,5.3748995E-1,1.1144236E-1,-1.3110681E-1,3.1444207E-1],"split_indices":[28,5,20,21,23,13,6,13,0,13,7,4,6,8,0,13,0,10,13,12,0,0,0,0,2,0,0,2,0,0,0,1,9,0,0,4,13,2,2,11,3,12,14,5,0,0,0,0,0,0,0,0,0,0,0,0,0,0,0,0,0,0,0,0,0,0,0,0,0],"split_type":[0,0,0,0,0,0,0,0,0,0,0,0,0,0,0,0,0,0,0,0,0,0,0,0,0,0,0,0,0,0,0,0,0,0,0,0,0,0,0,0,0,0,0,0,0,0,0,0,0,0,0,0,0,0,0,0,0,0,0,0,0,0,0,0,0,0,0,0,0],"sum_hessian":[3.0333014E2,1.9049449E2,1.1283566E2,1.6024527E1,1.7446996E2,9.884185E1,1.3993808E1,1.4237968E1,1.7865571E0,1.2487374E2,4.959622E1,5.3503447E0,9.349151E1,4.099768E0,9.894039E0,2.4106507E0,1.1827318E1,1.11107155E2,1.3766583E1,2.5888985E1,2.3707233E1,3.535761E0,1.8145835E0,7.0971794E1,2.2519712E1,2.6070418E0,1.4927262E0,8.16124E0,1.7327999E0,1.3891964E0,1.0214545E0,9.913146E1,1.1975696E1,7.8815975E0,5.884986E0,3.2884881E0,2.2600496E1,8.415969E0,1.5291265E1,3.7001736E1,3.3970062E1,1.4709575E1,7.8101377E0,2.0622523E0,6.0989876E0,6.629309E1,3.2838367E1,7.3485236E0,4.6271725E0,3.4951432E0,2.3898427E0,1.7347144E0,1.5537738E0,2.1291677E1,1.3088182E0,6.151961E0,2.264008E0,1.2486312E1,2.8049526E0,3.2847057E1,4.1546774E0,1.4559979E1,1.9410082E1,1.0518554E1,4.1910205E0,3.9554245E0,3.8547132E0,1.0439602E0,1.0182922E0],"tree_param":{"num_deleted":"0","num_feature":"29","num_nodes":"69","size_leaf_vector":"1"}},{"base_weights":[-3.760044E-2,-1.7557359E-1,2.056947E-1,2.1511802E-1,-2.5666496E-1,-1.53535E-1,3.550691E-1,5.7143307E-1,-1.1150343E-1,-5.2406925E-1,-1.2283794E-1,1.338742E-1,-8.4050566E-1,6.118564E-1,7.958131E-2,7.6830995E-1,-3.2386485E-2,-3.9077312E-1,3.6514124E-1,-5.684224E-1,2.5515833E-1,-2.5533733E-1,1.952237E-1,6.840954E-1,-1.3908887E-1,-2.8897986E-1,1.146433E-2,7.430083E-1,-1.4554334E-3,-2.3402774E-1,7.153177E-1,4.8425E-3,8.8302463E-1,-2.8320453E-1,5.920045E-1,-5.7377774E-1,1.7657271E-1,-5.579422E-2,3.121595E-1,-2.3850104E-1,-6.8152833E-1,6.469812E-1,-2.9744905E-1,6.4833117E-1,-6.6287106E-1,9.902894E-1,-1.9229843E-1,-3.4322155E-1,3.067901E-1,9.6179825E-1,1.8331815E-1,6.1274034E-1,-6.798067E-1,1.1220174E-1,-1.0278275E0,9.4061166E-1,-8.707175E-2,3.1519562E-1,-3.998444E-2,2.705123E-1,-8.261434E-3,-2.1598496E-1,1.0131917E-1,-1.2868734E-1,1.3950236E-1,6.7454115E-2,-1.631415E-1,-2.5343227E-1,-9.783995E-2,-8.105429E-3,3.121102E-1,-1.1576077E-1,2.2163827E-2,7.0920244E-2,5.145739E-1,9.898242E-2,-2.5713405E-1,3.293848E-1,7.864854E-2,-2.4800202E-1,3.1752896E-2,3.7736064E-1,2.0563427E-1,-1.5867487E-1,2.1382983E-1,2.869188E-1,-5.758983E-2,-2.5538215E-1,-2.9560538E-2,-1.2917213E-1,2.8469208E-1,-3.364219E-1,-9.314174E-2,4.1589183E-1,1.13792814E-1,-1.5934215E-1,1.0620276E-1],"categories":[],"categories_nodes":[],"categories_segments":[],"categories_sizes":[],"default_left":[0,0,0,0,0,0,0,0,0,0,0,0,0,0,0,0,0,0,0,0,0,0,0,0,0,0,0,0,0,0,0,0,0,0,0,0,0,0,0,0,0,0,0,0,0,0,0,0,0,0,0,0,0,0,0,0,0,0,0,0,0,0,0,0,0,0,0,0,0,0,0,0,0,0,0,0,0,0,0,0,0,0,0,0,0,0,0,0,0,0,0,0,0,0,0,0,0],"id":9,"left_children":[1,3,5,7,9,11,13,15,17,19,21,23,25,27,29,31,33,35,37,39,-1,41,43,45,47,-1,-1,49,51,53,55,-1,57,-1,59,61,-1,63,-1,65,67,69,71,73,75,77,-1,79,-1,81,83,85,87,89,91,93,95,-1,-1,-1,-1,-1,-1,-1,-1,-1,-1,-1,-1,-1,-1,-1,-1,-1,-1,-1,-1,-1,-1,-1,-1,-1,-1,-1,-1,-1,-1,-1,-1,-1,-1,-1,-1,-1,-1,-1,-1],"loss_changes":[9.784208E0,5.9431853E0,5.7182503E0,3.8446789E0,5.4595222E0,6.3708997E0,5.2464504E0,1.8913894E0,2.510361E0,3.6037273E0,4.440324E0,3.5811071E0,1.0601974E0,3.1052475E0,7.5961285E0,1.0108833E0,3.3025503E0,2.434419E0,2.0732303E0,1.7099266E0,0E0,3.0034266E0,1.256206E1,3.826022E0,4.2271194E0,0E0,0E0,3.7170792E0,3.6649454E0,7.180076E0,2.351554E0,0E0,1.893053E0,0E0,6.916611E-1,1.6239119E0,0E0,1.2325741E0,0E0,2.1521256E0,1.861229E0,9.862102E-1,2.3715715E0,8.791523E0,2.4576054E0,2.4379873E-1,0E0,3.2682095E0,0E0,9.8882294E-1,4.2124896E0,1.4605999E0,3.3262527E-1,8.947214E0,1.8250275E-1,1.9477186E0,9.064211E-1,0E0,0E0,0E0,0E0,0E0,0E0,0E0,0E0,0E0,0E0,0E0,0E0,0E0,0E0,0E0,0E0,0E0,0E0,0E0,0E0,0E0,0E0,0E0,0E0,0E0,0E0,0E0,0E0,0E0,0E0,0E0,0E0,0E0,0E0,0E0,0E0,0E0,0E0,0E0,0E0],"parents":[2147483647,0,0,1,1,2,2,3,3,4,4,5,5,6,6,7,7,8,8,9,9,10,10,11,11,12,12,13,13,14,14,15,15,16,16,17,17,18,18,19,19,21,21,22,22,23,23,24,24,27,27,28,28,29,29,30,30,32,32,34,34,35,35,37,37,39,39,40,40,41,41,42,42,43,43,44,44,45,45,47,47,49,49,50,50,51,51,52,52,53,53,54,54,55,55,56,56],"right_children":[2,4,6,8,10,12,14,16,18,20,22,24,26,28,30,32,34,36,38,40,-1,42,44,46,48,-1,-1,50,52,54,56,-1,58,-1,60,62,-1,64,-1,66,68,70,72,74,76,78,-1,80,-1,82,84,86,88,90,92,94,96,-1,-1,-1,-1,-1,-1,-1,-1,-1,-1,-1,-1,-1,-1,-1,-1,-1,-1,-1,-1,-1,-1,-1,-1,-1,-1,-1,-1,-1,-1,-1,-1,-1,-1,-1,-1,-1,-1,-1,-1],"split_conditions":[1E0,1E0,3E0,1E0,4E0,1E1,1E0,1.8E1,3E0,1.5E1,6E0,2E0,2.1E1,1E0,2E1,3E0,2E1,1E0,3E0,2E0,2.5515833E-1,1.2066E2,1.2E1,1E0,7E0,-2.8897986E-1,1.146433E-2,1E0,4E0,1.5E1,6E0,4.8425E-3,1.9836E2,-2.8320453E-1,1.4518E2,1.4163E2,1.7657271E-1,1.4364E2,3.121595E-1,1E0,3E0,2E0,1.3E1,1.9725E2,1.4996E2,2E1,-1.9229843E-1,1E0,3.067901E-1,1E0,1.3E1,5E0,1E0,1.3E1,1.7E1,1.5283E2,2.8E1,3.1519562E-1,-3.998444E-2,2.705123E-1,-8.261434E-3,-2.1598496E-1,1.0131917E-1,-1.2868734E-1,1.3950236E-1,6.7454115E-2,-1.631415E-1,-2.5343227E-1,-9.783995E-2,-8.105429E-3,3.121102E-1,-1.1576077E-1,2.2163827E-2,7.0920244E-2,5.145739E-1,9.898242E-2,-2.5713405E-1,3.293848E-1,7.864854E-2,-2.4800202E-1,3.1752896E-2,3.7736064E-1,2.0563427E-1,-1.5867487E-1,2.1382983E-1,2.869188E-1,-5.758983E-2,-2.5538215E-1,-2.9560538E-2,-1.2917213E-1,2.8469208E-1,-3.364219E-1,-9.314174E-2,4.1589183E-1,1.13792814E-1,-1.5934215E-1,1.0620276E-1],"split_indices":[8,0,6,15,5,0,27,9,7,11,7,12,0,18,2,6,9,16,12,12,0,13,0,23,7,0,0,15,0,2,12,0,13,0,13,13,0,13,0,10,11,1,0,13,13,2,0,3,0,14,9,6,14,2,9,13,2,0,0,0,0,0,0,0,0,0,0,0,0,0,0,0,0,0,0,0,0,0,0,0,0,0,0,0,0,0,0,0,0,0,0,0,0,0,0,0,0],"split_type":[0,0,0,0,0,0,0,0,0,0,0,0,0,0,0,0,0,0,0,0,0,0,0,0,0,0,0,0,0,0,0,0,0,0,0,0,0,0,0,0,0,0,0,0,0,0,0,0,0,0,0,0,0,0,0,0,0,0,0,0,0,0,0,0,0,0,0,0,0,0,0,0,0,0,0,0,0,0,0,0,0,0,0,0,0,0,0,0,0,0,0,0,0,0,0,0,0],"sum_hessian":[2.8939667E2,1.848476E2,1.0454908E2,3.1488033E1,1.5335956E2,3.0697348E1,7.385174E1,1.4701009E1,1.6787024E1,5.0179066E1,1.031805E2,2.2210304E1,8.487042E0,3.7591248E1,3.626049E1,1.088086E1,3.8201485E0,1.0698721E1,6.0883026E0,4.9178734E1,1.0003339E0,7.297675E1,3.0203741E1,6.8653655E0,1.5344939E1,7.3622885E0,1.1247538E0,3.0794594E1,6.796651E0,2.4705256E1,1.1555234E1,1.5908155E0,9.290045E0,1.344802E0,2.4753466E0,9.363203E0,1.3355186E0,4.31585E0,1.7724532E0,1.33491E1,3.582963E1,2.6135411E0,7.036321E1,1.9926321E1,1.0277421E1,5.7819653E0,1.0834E0,1.3650834E1,1.6941051E0,2.162332E1,9.171275E0,3.617762E0,3.178889E0,1.780009E1,6.9051647E0,8.887539E0,2.6676955E0,7.9457026E0,1.344342E0,1.3467022E0,1.1286442E0,8.250315E0,1.1128883E0,2.6170444E0,1.6988051E0,5.4068546E0,7.942246E0,2.3608427E1,1.2221205E1,1.3064622E0,1.307079E0,5.679913E1,1.3564083E1,1.5257177E1,4.669143E0,1.5674181E0,8.710003E0,4.594693E0,1.1872723E0,6.168789E0,7.4820457E0,8.724521E0,1.2898798E1,3.9110203E0,5.2602553E0,2.4030287E0,1.2147334E0,2.0960734E0,1.0828156E0,1.1091184E1,6.7089067E0,5.61008E0,1.2950845E0,4.1346636E0,4.7528753E0,1.2276003E0,1.4400952E0],"tree_param":{"num_deleted":"0","num_feature":"29","num_nodes":"97","size_leaf_vector":"1"}},{"base_weights":[-2.7172234E-2,3.992053E-3,-2.7468136E-1,-1.1086121E-1,1.927442E-1,-6.7143255E-1,-6.421549E-2,1.4687404E-1,1.1302675E0,-1.1234278E-1,-2.8442663E-1,-1.8426034E-1,1.2697396E-1,7.679925E-2,7.425877E-1,1.1219275E-1,4.3254086E-1,-1.9177355E-1,4.555763E-1,5.9650116E-2,-3.5367033E-1,4.0551195E-1,-3.6792257E-1,-9.815237E-3,7.316644E-1,2.1554591E-1,1.5395248E0,2.258642E-1,-1.6845047E-2,7.240623E-2,-8.788921E-2,-2.610798E-1,-4.5593414E-2,5.7495836E-2,2.9714176E-1,-1.4704432E-1,2.8111553E-1,4.08016E-2,-1.23793386E-1,-2.7123434E-2,2.9779282E-1,-1.444986E-1,3.044259E-1,6.233487E-1,1.0608307E-1],"categories":[],"categories_nodes":[],"categories_segments":[],"categories_sizes":[],"default_left":[0,0,0,0,0,0,0,0,0,0,0,0,0,0,0,0,0,0,0,0,0,0,0,0,0,0,0,0,0,0,0,0,0,0,0,0,0,0,0,0,0,0,0,0,0],"id":10,"left_children":[1,3,-1,5,7,9,11,13,15,17,-1,19,21,23,25,-1,-1,-1,27,29,31,33,35,37,39,41,43,-1,-1,-1,-1,-1,-1,-1,-1,-1,-1,-1,-1,-1,-1,-1,-1,-1,-1],"loss_changes":[7.5834126E0,5.776666E0,0E0,4.2892485E0,4.1686516E0,1.8457971E0,3.5593367E0,4.002356E0,5.333619E-1,1.8809726E0,0E0,3.948554E0,8.422099E0,5.0056453E0,3.9185953E0,0E0,0E0,0E0,5.200943E-1,2.621612E0,5.726983E0,4.673699E0,3.9902468E0,4.685879E0,2.301108E0,4.530829E0,1.7329636E0,0E0,0E0,0E0,0E0,0E0,0E0,0E0,0E0,0E0,0E0,0E0,0E0,0E0,0E0,0E0,0E0,0E0,0E0],"parents":[2147483647,0,0,1,1,3,3,4,4,5,5,6,6,7,7,8,8,9,9,11,11,12,12,13,13,14,14,18,18,19,19,20,20,21,21,22,22,23,23,24,24,25,25,26,26],"right_children":[2,4,-1,6,8,10,12,14,16,18,-1,20,22,24,26,-1,-1,-1,28,30,32,34,36,38,40,42,44,-1,-1,-1,-1,-1,-1,-1,-1,-1,-1,-1,-1,-1,-1,-1,-1,-1,-1],"split_conditions":[2.2E1,1E0,-2.7468136E-1,3E0,6E0,3E0,5E0,7E0,4E0,1.7E1,-2.8442663E-1,2E0,1.1E1,3E1,1.6E1,1.1219275E-1,4.3254086E-1,-1.9177355E-1,1.2991E2,4E0,7E0,5E0,1E0,1E0,3E0,1E0,1.2E1,2.258642E-1,-1.6845047E-2,7.240623E-2,-8.788921E-2,-2.610798E-1,-4.5593414E-2,5.7495836E-2,2.9714176E-1,-1.4704432E-1,2.8111553E-1,4.08016E-2,-1.23793386E-1,-2.7123434E-2,2.9779282E-1,-1.444986E-1,3.044259E-1,6.233487E-1,1.0608307E-1],"split_indices":[0,28,0,5,5,12,7,11,7,2,0,0,0,2,9,0,0,0,13,12,0,6,16,23,6,8,2,0,0,0,0,0,0,0,0,0,0,0,0,0,0,0,0,0,0],"split_type":[0,0,0,0,0,0,0,0,0,0,0,0,0,0,0,0,0,0,0,0,0,0,0,0,0,0,0,0,0,0,0,0,0,0,0,0,0,0,0,0,0,0,0,0,0],"sum_hessian":[2.727624E2,2.644805E2,8.2818985E0,1.6468465E2,9.9795845E1,1.1621953E1,1.530627E2,9.62436E1,3.5522435E0,4.3126545E0,7.309298E0,9.4047806E1,5.90149E1,8.7123985E1,9.119619E0,1.6783247E0,1.8739189E0,2.171964E0,2.1406906E0,3.881346E1,5.523434E1,3.7877354E1,2.1137545E1,7.781671E1,9.307267E0,6.2540617E0,2.8655572E0,1.0559472E0,1.0847434E0,2.5822512E1,1.29909525E1,1.4578787E1,4.0655552E1,2.870907E1,9.168283E0,1.9898254E1,1.2392892E0,5.762086E1,2.0195852E1,2.400214E0,6.9070535E0,3.5523808E0,2.7016811E0,1.4536391E0,1.4119182E0],"tree_param":{"num_deleted":"0","num_feature":"29","num_nodes":"45","size_leaf_vector":"1"}},{"base_weights":[-1.98402E-2,4.9907984E-3,-2.6448807E-1,-1.0539282E-1,2.0095278E-1,-5.54306E-2,-6.55346E-1,4.1099187E-2,4.3145368E-1,-9.636796E-2,4.705516E-1,-8.12984E-1,-8.220564E-2,-6.689617E-2,6.632047E-1,9.0365225E-1,1.4765163E-1,-1.6430877E-1,3.244726E-1,8.1627615E-2,-2.888868E-1,-2.0901644E-1,1.5442628E-1,5.885124E-2,-6.233733E-1,9.777867E-1,-1.9510679E-1,1.0551525E0,-6.156733E-2,-6.0024804E-1,3.6424372E-1,-2.1087064E-1,-2.6928788E-2,2.6639155E-1,-1.04524046E-1,4.212596E-2,-2.3764761E-1,-2.8110868E-1,4.83015E-2,4.199849E-1,1.2784512E-1,8.400245E-2,-1.7204346E-1,3.4948158E-1,3.9987966E-2,-2.570999E-1,7.094874E-2,1.3895706E-2,2.542996E-1],"categories":[],"categories_nodes":[],"categories_segments":[],"categories_sizes":[],"default_left":[0,0,0,0,0,0,0,0,0,0,0,0,0,0,0,0,0,0,0,0,0,0,0,0,0,0,0,0,0,0,0,0,0,0,0,0,0,0,0,0,0,0,0,0,0,0,0,0,0],"id":11,"left_children":[1,3,-1,5,7,9,11,13,15,17,-1,19,21,23,25,27,29,31,33,-1,-1,-1,-1,35,37,39,41,43,-1,45,47,-1,-1,-1,-1,-1,-1,-1,-1,-1,-1,-1,-1,-1,-1,-1,-1,-1,-1],"loss_changes":[5.631044E0,5.571036E0,0E0,4.4912453E0,3.4013252E0,1.0265825E1,1.1646771E0,3.7998636E0,4.9447765E0,4.323505E0,0E0,1.9833546E0,1.8453692E0,3.4331782E0,2.4480531E0,2.5735216E0,4.246317E0,5.1263924E0,8.308207E0,0E0,0E0,0E0,0E0,2.9229481E0,2.3731627E0,8.66858E-1,7.135317E-1,1.1104631E0,0E0,1.4833612E0,3.0196085E0,0E0,0E0,0E0,0E0,0E0,0E0,0E0,0E0,0E0,0E0,0E0,0E0,0E0,0E0,0E0,0E0,0E0,0E0],"parents":[2147483647,0,0,1,1,3,3,4,4,5,5,6,6,7,7,8,8,9,9,11,11,12,12,13,13,14,14,15,15,16,16,17,17,18,18,23,23,24,24,25,25,26,26,27,27,29,29,30,30],"right_children":[2,4,-1,6,8,10,12,14,16,18,-1,20,22,24,26,28,30,32,34,-1,-1,-1,-1,36,38,40,42,44,-1,46,48,-1,-1,-1,-1,-1,-1,-1,-1,-1,-1,-1,-1,-1,-1,-1,-1,-1,-1],"split_conditions":[2.2E1,1E0,-2.6448807E-1,2.3191E2,4E0,2.2624E2,5E0,1E0,7E0,1.9342E2,4.705516E-1,5E0,9E0,1E0,1.8265E2,1E0,3E0,8E0,2.0739E2,8.1627615E-2,-2.888868E-1,-2.0901644E-1,1.5442628E-1,1.2E1,1.9E1,1E0,1E0,2.8E1,-6.156733E-2,9E0,3E0,-2.1087064E-1,-2.6928788E-2,2.6639155E-1,-1.04524046E-1,4.212596E-2,-2.3764761E-1,-2.8110868E-1,4.83015E-2,4.199849E-1,1.2784512E-1,8.400245E-2,-1.7204346E-1,3.4948158E-1,3.9987966E-2,-2.570999E-1,7.094874E-2,1.3895706E-2,2.542996E-1],"split_indices":[0,8,0,13,7,13,5,20,0,13,0,0,12,23,13,21,6,2,13,0,0,0,0,0,9,23,27,2,0,7,1,0,0,0,0,0,0,0,0,0,0,0,0,0,0,0,0,0,0],"split_type":[0,0,0,0,0,0,0,0,0,0,0,0,0,0,0,0,0,0,0,0,0,0,0,0,0,0,0,0,0,0,0,0,0,0,0,0,0,0,0,0,0,0,0,0,0,0,0,0,0],"sum_hessian":[2.619393E2,2.5556967E2,6.369621E0,1.6377748E2,9.17922E1,1.5114685E2,1.2630621E1,5.4898266E1,3.6893936E1,1.4834785E2,2.7990038E0,9.577835E0,3.0527854E0,4.7538258E1,7.3600087E0,1.3030047E1,2.3863888E1,1.2825227E2,2.0095572E1,1.0641588E0,8.513677E0,1.421926E0,1.6308594E0,3.950544E1,8.03282E0,5.2841153E0,2.0758932E0,1.1506431E1,1.5236171E0,4.961238E0,1.8902649E1,1.4568233E1,1.13684044E2,1.0762781E1,9.33279E0,3.681203E1,2.6934073E0,5.599207E0,2.4336123E0,2.1222E0,3.1619155E0,1.035543E0,1.0403503E0,1.0046312E1,1.4601182E0,3.7778208E0,1.1834173E0,1.206431E1,6.8383393E0],"tree_param":{"num_deleted":"0","num_feature":"29","num_nodes":"49","size_leaf_vector":"1"}},{"base_weights":[-1.7504191E-2,2.2303937E-3,-2.533034E-1,-9.274804E-2,1.5228823E-1,-2.7233905E-1,1.6039817E-2,2.424725E-1,-1.6452797E-1,-4.4261155E-1,2.7211842E-1,-3.0009635E-2,1.0497494E0,1.3156563E-1,6.7541647E-1,3.4000674E-1,-3.790175E-1,-5.866002E-1,-8.185327E-4,6.0627145E-1,-5.3273225E-1,3.53326E-1,-1.5681098E-1,2.2516645E-2,4.0963903E-1,-2.631689E-1,2.993594E-1,1.2389678E-1,1.2365749E0,-3.094434E-1,7.8994024E-1,-4.577381E-1,1.02271505E-1,-2.3870844E-1,-2.0084292E-2,8.6210884E-2,-1.9129393E-1,3.1358537E-1,-1.7626028E-1,-2.74628E-1,1.3257228E-1,1.8565051E-1,-1.2877494E-1,1.8202655E-2,-9.025021E-2,8.6319454E-2,-1.7275491E-1,4.5793798E-2,2.5715742E-1,1.0547989E-1,-1.7607224E-1,4.6326458E-1,1.880957E-2,7.682405E-2,-2.5998503E-1,1.5821455E-2,2.980089E-1,-2.6285708E-1,-6.76851E-2],"categories":[],"categories_nodes":[],"categories_segments":[],"categories_sizes":[],"default_left":[0,0,0,0,0,0,0,0,0,0,0,0,0,0,0,0,0,0,0,0,0,0,0,0,0,0,0,0,0,0,0,0,0,0,0,0,0,0,0,0,0,0,0,0,0,0,0,0,0,0,0,0,0,0,0,0,0,0,0],"id":12,"left_children":[1,3,-1,5,7,9,11,13,15,17,19,21,23,25,27,29,31,33,35,37,39,41,43,-1,-1,45,47,49,51,53,55,57,-1,-1,-1,-1,-1,-1,-1,-1,-1,-1,-1,-1,-1,-1,-1,-1,-1,-1,-1,-1,-1,-1,-1,-1,-1,-1,-1],"loss_changes":[4.1536417E0,3.5701249E0,0E0,3.0016968E0,2.813899E0,5.490909E0,4.6243854E0,3.559422E0,2.5214431E0,2.8309336E0,4.2011766E0,4.592565E0,1.1723237E0,4.167227E0,4.5673084E0,2.3256657E0,1.0620487E0,3.594079E0,2.3749454E0,6.199628E0,2.1809916E0,5.1503563E0,2.2369866E0,0E0,0E0,3.4289925E0,3.4524E0,1.6312537E0,2.5932016E0,1.3667977E0,6.2079E-1,1.2435238E0,0E0,0E0,0E0,0E0,0E0,0E0,0E0,0E0,0E0,0E0,0E0,0E0,0E0,0E0,0E0,0E0,0E0,0E0,0E0,0E0,0E0,0E0,0E0,0E0,0E0,0E0,0E0],"parents":[2147483647,0,0,1,1,3,3,4,4,5,5,6,6,7,7,8,8,9,9,10,10,11,11,12,12,13,13,14,14,15,15,16,16,17,17,18,18,19,19,20,20,21,21,22,22,25,25,26,26,27,27,28,28,29,29,30,30,31,31],"right_children":[2,4,-1,6,8,10,12,14,16,18,20,22,24,26,28,30,32,34,36,38,40,42,44,-1,-1,46,48,50,52,54,56,58,-1,-1,-1,-1,-1,-1,-1,-1,-1,-1,-1,-1,-1,-1,-1,-1,-1,-1,-1,-1,-1,-1,-1,-1,-1,-1,-1],"split_conditions":[2.2E1,1E0,-2.533034E-1,1.3E1,1E0,5E0,2E1,5E0,1.4554E2,5E0,1E1,1.3E1,1E0,3E0,1.4E1,2E0,1.8E1,1E0,4E0,1E0,2.338E2,1E0,2E0,2.2516645E-2,4.0963903E-1,2E0,3E0,3E0,3E0,1.6E1,1.3886E2,1.2E1,1.02271505E-1,-2.3870844E-1,-2.0084292E-2,8.6210884E-2,-1.9129393E-1,3.1358537E-1,-1.7626028E-1,-2.74628E-1,1.3257228E-1,1.8565051E-1,-1.2877494E-1,1.8202655E-2,-9.025021E-2,8.6319454E-2,-1.7275491E-1,4.5793798E-2,2.5715742E-1,1.0547989E-1,-1.7607224E-1,4.6326458E-1,1.880957E-2,7.682405E-2,-2.5998503E-1,1.5821455E-2,2.980089E-1,-2.6285708E-1,-6.76851E-2],"split_indices":[0,28,0,2,18,6,0,5,13,5,0,9,14,6,2,12,0,23,4,23,13,23,0,0,0,12,11,11,11,2,13,2,0,0,0,0,0,0,0,0,0,0,0,0,0,0,0,0,0,0,0,0,0,0,0,0,0,0,0],"split_type":[0,0,0,0,0,0,0,0,0,0,0,0,0,0,0,0,0,0,0,0,0,0,0,0,0,0,0,0,0,0,0,0,0,0,0,0,0,0,0,0,0,0,0,0,0,0,0,0,0,0,0,0,0,0,0,0,0,0,0],"sum_hessian":[2.5343823E2,2.4850436E2,4.9338665E0,1.5241554E2,9.608881E1,5.693E1,9.548554E1,7.497986E1,2.1108961E1,4.3509872E1,1.3420127E1,9.234285E1,3.1426985E0,6.0727287E1,1.4252569E1,6.122372E0,1.49865885E1,3.2567684E1,1.094219E1,9.657368E0,3.7627592E0,2.2508999E1,6.983385E1,1.0717257E0,2.0709727E0,1.7944492E1,4.2782795E1,7.8036985E0,6.448871E0,2.6334302E0,3.4889417E0,1.3837679E1,1.1489098E0,2.2844461E1,9.723221E0,7.910944E0,3.0312462E0,7.151768E0,2.5055995E0,2.7454903E0,1.0172688E0,1.6963072E1,5.5459266E0,2.8051905E1,4.1781944E1,6.526135E0,1.1418358E1,3.488219E1,7.9006014E0,6.293087E0,1.5106114E0,4.8597755E0,1.5890957E0,1.5751094E0,1.058321E0,1.0268611E0,2.4620807E0,3.947209E0,9.8904705E0],"tree_param":{"num_deleted":"0","num_feature":"29","num_nodes":"59","size_leaf_vector":"1"}},{"base_weights":[-1.5389937E-2,-1.0562928E-1,1.4835475E-1,-6.344306E-2,-5.986382E-1,2.7776045E-1,-9.0050474E-2,-1.2816502E-1,4.0900075E-1,4.68872E-2,-7.024667E-1,1.2507576E-1,5.767533E-1,-2.1131463E-1,3.2323313E-1,9.7658515E-2,-2.418543E-1,1.0239487E0,-4.9946573E-2,-2.7659243E-1,-5.8771722E-2,2.2520104E-2,8.3802634E-1,8.658744E-1,1.3471223E-1,-3.0866104E-1,2.367715E-1,2.5878632E-1,-5.447552E-1,1.441987E-1,-3.3736178E-1,2.104947E-1,1.8617254E0,-5.466408E-1,7.8537875E-1,-1.9778205E-1,1.9452062E-1,1.0445086E-1,-2.2855052E-1,3.7692088E-1,4.4191256E-2,1.1268709E0,-1.6448772E-2,-3.6528462E-1,6.410974E-1,1.2576056E-1,-5.913937E-1,4.4456758E-2,4.449712E-1,-3.5904613E-1,-1.9728806E-2,7.125268E-3,2.557377E-1,-1.8303007E-1,-6.3839026E-2,2.5914642E-1,-1.6235016E-1,7.5289875E-1,7.125692E-2,-2.2327448E-1,4.1537512E-2,-1.421344E-1,4.0891495E-1,1.324482E-1,-1.15943225E-2,4.0189287E-1,1.4728227E-1,-1.524773E-1,1.3168317E-1,4.0786114E-2,-2.2072366E-1,3.892704E-2,2.2585796E-1,-1.973913E-1,1.2515378E-1,-2.554273E-1,5.273335E-2],"categories":[],"categories_nodes":[],"categories_segments":[],"categories_sizes":[],"default_left":[0,0,0,0,0,0,0,0,0,0,0,0,0,0,0,0,0,0,0,0,0,0,0,0,0,0,0,0,0,0,0,0,0,0,0,0,0,0,0,0,0,0,0,0,0,0,0,0,0,0,0,0,0,0,0,0,0,0,0,0,0,0,0,0,0,0,0,0,0,0,0,0,0,0,0,0,0],"id":13,"left_children":[1,3,5,7,9,11,13,15,17,-1,19,21,23,25,-1,27,29,31,33,-1,35,37,39,41,43,45,-1,47,49,51,53,55,57,59,61,-1,-1,63,-1,-1,-1,65,67,69,71,73,75,-1,-1,-1,-1,-1,-1,-1,-1,-1,-1,-1,-1,-1,-1,-1,-1,-1,-1,-1,-1,-1,-1,-1,-1,-1,-1,-1,-1,-1,-1],"loss_changes":[3.6537838E0,3.2755768E0,2.7366493E0,4.574215E0,1.0848494E0,2.539857E0,4.712619E0,3.3823454E0,5.1471567E0,0E0,1.5166926E0,2.8437738E0,2.3198333E0,3.1202345E0,0E0,4.7492657E0,3.267614E0,4.898672E0,5.1148586E0,0E0,2.0816238E0,2.3451958E0,1.2297723E0,2.630292E0,2.4427083E0,3.468561E0,0E0,4.6919994E0,2.810163E0,1.5166191E0,2.2581215E0,2.9554079E0,3.294487E0,1.141645E0,4.007348E0,0E0,0E0,1.5990498E0,0E0,0E0,0E0,5.2854156E-1,1.0236958E0,1.0333195E0,1.707195E-1,2.9510984E0,3.5240083E0,0E0,0E0,0E0,0E0,0E0,0E0,0E0,0E0,0E0,0E0,0E0,0E0,0E0,0E0,0E0,0E0,0E0,0E0,0E0,0E0,0E0,0E0,0E0,0E0,0E0,0E0,0E0,0E0,0E0,0E0],"parents":[2147483647,0,0,1,1,2,2,3,3,4,4,5,5,6,6,7,7,8,8,10,10,11,11,12,12,13,13,15,15,16,16,17,17,18,18,20,20,21,21,22,22,23,23,24,24,25,25,27,27,28,28,29,29,30,30,31,31,32,32,33,33,34,34,37,37,41,41,42,42,43,43,44,44,45,45,46,46],"right_children":[2,4,6,8,10,12,14,16,18,-1,20,22,24,26,-1,28,30,32,34,-1,36,38,40,42,44,46,-1,48,50,52,54,56,58,60,62,-1,-1,64,-1,-1,-1,66,68,70,72,74,76,-1,-1,-1,-1,-1,-1,-1,-1,-1,-1,-1,-1,-1,-1,-1,-1,-1,-1,-1,-1,-1,-1,-1,-1,-1,-1,-1,-1,-1,-1],"split_conditions":[1E0,2.3191E2,1.6798E2,2.0096E2,5E0,4E0,3.4E1,2E0,3E0,4.68872E-2,5E0,1E0,1E0,1E0,3.2323313E-1,1E0,1E0,1.3E1,6E0,-2.7659243E-1,3E0,1E1,1E0,4E0,4E0,7E0,2.367715E-1,2.9E1,1.4364E2,8E0,1.4789E2,1.3E1,4E0,1E0,3E0,-1.9778205E-1,1.9452062E-1,1.2476E2,-2.2855052E-1,3.7692088E-1,4.4191256E-2,1E0,1E0,1.2476E2,1.4E1,1.7412E2,8E0,4.4456758E-2,4.449712E-1,-3.5904613E-1,-1.9728806E-2,7.125268E-3,2.557377E-1,-1.8303007E-1,-6.3839026E-2,2.5914642E-1,-1.6235016E-1,7.5289875E-1,7.125692E-2,-2.2327448E-1,4.1537512E-2,-1.421344E-1,4.0891495E-1,1.324482E-1,-1.15943225E-2,4.0189287E-1,1.4728227E-1,-1.524773E-1,1.3168317E-1,4.0786114E-2,-2.2072366E-1,3.892704E-2,2.2585796E-1,-1.973913E-1,1.2515378E-1,-2.554273E-1,5.273335E-2],"split_indices":[8,13,13,13,0,7,2,12,6,0,5,20,15,26,0,18,0,0,7,0,1,0,23,6,5,0,0,2,13,12,13,9,7,20,11,0,0,13,0,0,0,14,19,13,9,13,7,0,0,0,0,0,0,0,0,0,0,0,0,0,0,0,0,0,0,0,0,0,0,0,0,0,0,0,0,0,0],"split_type":[0,0,0,0,0,0,0,0,0,0,0,0,0,0,0,0,0,0,0,0,0,0,0,0,0,0,0,0,0,0,0,0,0,0,0,0,0,0,0,0,0,0,0,0,0,0,0,0,0,0,0,0,0,0,0,0,0,0,0,0,0,0,0,0,0,0,0,0,0,0,0,0,0,0,0,0,0],"sum_hessian":[2.4521416E2,1.5831953E2,8.689463E1,1.4687987E2,1.1439661E1,5.6215786E1,3.0678848E1,1.2982355E2,1.7056328E1,1.3220277E0,1.0117633E1,3.8151524E1,1.806426E1,2.8534098E1,2.1447504E0,4.3519928E1,8.630361E1,6.7631865E0,1.029314E1,7.2223916E0,2.895241E0,3.4255558E1,3.8959649E0,1.0341497E1,7.7227635E0,2.6634289E1,1.8998098E0,3.5270645E1,8.249286E0,1.701541E1,6.92882E1,4.066247E0,2.6969397E0,6.671678E0,3.6214626E0,1.6023384E0,1.2929026E0,3.1800621E1,2.4549394E0,1.9162847E0,1.9796803E0,7.766853E0,2.5746446E0,4.0260987E0,3.696665E0,1.071925E1,1.5915038E1,3.3376934E1,1.8937088E0,2.8588448E0,5.390441E0,1.5425637E1,1.589773E0,2.0501587E1,4.8786613E1,2.0955925E0,1.9706544E0,1.5381609E0,1.1587789E0,5.111111E0,1.5605668E0,1.1954849E0,2.4259777E0,8.8561945E0,2.2944426E1,4.990517E0,2.7763357E0,1.182018E0,1.3926265E0,1.9800627E0,2.046036E0,1.0506569E0,2.646008E0,2.5645137E0,8.1547365E0,1.1804213E1,4.110826E0],"tree_param":{"num_deleted":"0","num_feature":"29","num_nodes":"77","size_leaf_vector":"1"}},{"base_weights":[-6.984983E-3,8.655781E-3,-2.3818414E-1,-4.0671203E-1,3.863984E-2,-7.2844315E-1,5.852375E-2,9.699389E-2,-1.2111953E-1,-2.6773906E-1,1.6281471E-3,-3.6487693E-1,5.997675E-1,4.493538E-2,5.900777E-1,-4.7382963E-1,2.6858881E-2,-2.3461896E-1,7.577074E-2,2.4309815E-1,9.136997E-3,4.157822E-3,6.206011E-1,9.326095E-1,1.9891221E-2,-2.7010238E-1,-2.050982E-1,-3.9317957E-1,2.3045735E-1,2.2785712E-2,-9.5644385E-2,4.034814E-1,-5.9760795E-3,4.0054503E-1,1.1690454E-1,-1.0410917E-1,2.671068E-1,7.7627495E-2,-1.8583234E-1,-1.8715447E-1,8.575724E-2,1.2886313E-1,-4.327417E-2],"categories":[],"categories_nodes":[],"categories_segments":[],"categories_sizes":[],"default_left":[0,0,0,0,0,0,0,0,0,0,0,0,0,0,0,0,0,0,0,0,0,0,0,0,0,0,0,0,0,0,0,0,0,0,0,0,0,0,0,0,0,0,0],"id":14,"left_children":[1,3,-1,5,7,9,11,13,15,-1,-1,17,19,21,23,25,27,-1,-1,-1,-1,29,31,33,35,-1,37,39,41,-1,-1,-1,-1,-1,-1,-1,-1,-1,-1,-1,-1,-1,-1],"loss_changes":[2.9124296E0,2.9106994E0,0E0,2.3981E0,2.0413709E0,1.133606E0,1.9052837E0,4.0810475E0,3.0760026E0,0E0,0E0,1.4212898E0,4.078629E-1,3.420444E0,2.9498487E0,1.8096426E0,3.70731E0,0E0,0E0,0E0,0E0,3.2051258E0,4.498946E0,1.5500412E0,2.4571035E0,0E0,2.4607162E0,2.3988E0,2.233883E0,0E0,0E0,0E0,0E0,0E0,0E0,0E0,0E0,0E0,0E0,0E0,0E0,0E0,0E0],"parents":[2147483647,0,0,1,1,3,3,4,4,5,5,6,6,7,7,8,8,11,11,12,12,13,13,14,14,15,15,16,16,21,21,22,22,23,23,24,24,26,26,27,27,28,28],"right_children":[2,4,-1,6,8,10,12,14,16,-1,-1,18,20,22,24,26,28,-1,-1,-1,-1,30,32,34,36,-1,38,40,42,-1,-1,-1,-1,-1,-1,-1,-1,-1,-1,-1,-1,-1,-1],"split_conditions":[2.2E1,3E0,-2.3818414E-1,1.7E1,1E0,4E0,5E0,1E0,3E0,-2.6773906E-1,1.6281471E-3,4E0,1.4E1,1.9E1,2.0169E2,3E0,1.4E1,-2.3461896E-1,7.577074E-2,2.4309815E-1,9.136997E-3,1E1,1.7542E2,4E0,2.8606E2,-2.7010238E-1,1.3E1,1.731E2,5E0,2.2785712E-2,-9.5644385E-2,4.034814E-1,-5.9760795E-3,4.0054503E-1,1.1690454E-1,-1.0410917E-1,2.671068E-1,7.7627495E-2,-1.8583234E-1,-1.8715447E-1,8.575724E-2,1.2886313E-1,-4.327417E-2],"split_indices":[0,5,0,2,23,11,7,20,6,0,0,6,9,0,13,1,9,0,0,0,0,0,13,6,13,0,2,13,12,0,0,0,0,0,0,0,0,0,0,0,0,0,0],"split_type":[0,0,0,0,0,0,0,0,0,0,0,0,0,0,0,0,0,0,0,0,0,0,0,0,0,0,0,0,0,0,0,0,0,0,0,0,0,0,0,0,0,0,0],"sum_hessian":[2.350574E2,2.3144644E2,3.6109655E0,1.4736608E1,2.1670984E2,8.377468E0,6.35914E0,1.5901906E2,5.7690773E1,6.670502E0,1.7069654E0,3.7508242E0,2.608316E0,1.4482043E2,1.4198636E1,1.639969E1,4.129108E1,2.0793035E0,1.6715208E0,1.595042E0,1.0132738E0,1.361812E2,8.639236E0,8.472983E0,5.7256527E0,5.4304795E0,1.0969213E1,1.3176288E1,2.8114792E1,1.12040245E2,2.4140945E1,3.5382426E0,5.100994E0,4.027629E0,4.4453545E0,4.450843E0,1.2748098E0,5.352543E0,5.616669E0,9.895922E0,3.280366E0,1.826432E1,9.8504715E0],"tree_param":{"num_deleted":"0","num_feature":"29","num_nodes":"43","size_leaf_vector":"1"}},{"base_weights":[-7.880678E-3,-8.166125E-2,1.2575814E-1,-4.9524542E-2,-5.1462835E-1,4.445841E-2,4.5666313E-1,-8.278765E-2,7.2950774E-1,-6.59465E-1,2.6707612E-2,1.3926226E-1,-2.519443E-1,6.476043E-1,-2.8792655E-1,-2.0230904E-1,5.728528E-2,4.2883186E-3,9.944122E-1,3.991346E-2,-8.5479724E-1,-4.720703E-2,4.0759614E-1,-5.984271E-1,6.887652E-1,1.3136405E-1,9.599562E-1,7.930683E-2,-2.2678769E-1,-2.873172E-1,5.334607E-1,1.3044566E-1,-7.0604384E-1,1.00755595E-1,3.4145594E-1,-2.834467E-1,-6.338169E-2,-1.3898653E-1,5.120828E-1,1.8742387E-1,8.755421E-1,-9.8625803E-1,2.0575921E-1,8.445773E-1,1.4976391E-2,-2.7590677E-1,2.4081479E-1,3.6693263E-1,3.661899E-1,6.182705E-3,-1.20872214E-1,3.1039983E-1,-2.1957286E-1,6.815124E-2,-1.4223695E-1,4.4298925E-2,-2.7793145E-1,1.4510025E-1,-7.416741E-2,2.4654368E-1,-5.3428147E-2,2.1755649E-1,-4.7216933E-2,-8.692807E-2,4.133373E-1,-1.628575E-1,-3.758395E-1,-1.7267878E-1,2.758032E-1,3.0864632E-1,5.647179E-2,-2.1019214E-1,8.176533E-2,-8.108696E-2,2.3359136E-1],"categories":[],"categories_nodes":[],"categories_segments":[],"categories_sizes":[],"default_left":[0,0,0,0,0,0,0,0,0,0,0,0,0,0,0,0,0,0,0,0,0,0,0,0,0,0,0,0,0,0,0,0,0,0,0,0,0,0,0,0,0,0,0,0,0,0,0,0,0,0,0,0,0,0,0,0,0,0,0,0,0,0,0,0,0,0,0,0,0,0,0,0,0,0,0],"id":15,"left_children":[1,3,5,7,9,11,13,15,17,19,-1,21,23,25,27,29,31,-1,33,-1,35,37,39,41,43,45,47,-1,-1,49,51,53,55,-1,-1,-1,-1,57,59,61,63,65,67,69,-1,71,-1,-1,73,-1,-1,-1,-1,-1,-1,-1,-1,-1,-1,-1,-1,-1,-1,-1,-1,-1,-1,-1,-1,-1,-1,-1,-1,-1,-1],"loss_changes":[2.2856355E0,2.051738E0,2.1986077E0,3.6902938E0,9.5127225E-1,1.9267864E0,2.4839382E0,2.2757711E0,1.0918965E0,1.4066756E0,0E0,2.6035967E0,5.845627E0,1.9974308E0,1.2313113E0,4.731361E0,3.6129823E0,0E0,1.9730568E-2,0E0,1.9638252E-1,1.6814182E0,2.0283794E0,4.169524E0,4.5076966E-1,1.8956212E0,8.0936575E-1,0E0,0E0,2.3668609E0,5.7871304E0,3.5214064E0,1.2036421E0,0E0,0E0,0E0,0E0,1.9887104E0,1.1372956E0,3.033474E0,4.224869E0,3.5433865E-1,3.2976222E0,2.801621E-1,0E0,1.2520918E0,0E0,0E0,1.2338214E0,0E0,0E0,0E0,0E0,0E0,0E0,0E0,0E0,0E0,0E0,0E0,0E0,0E0,0E0,0E0,0E0,0E0,0E0,0E0,0E0,0E0,0E0,0E0,0E0,0E0,0E0],"parents":[2147483647,0,0,1,1,2,2,3,3,4,4,5,5,6,6,7,7,8,8,9,9,11,11,12,12,13,13,14,14,15,15,16,16,18,18,20,20,21,21,22,22,23,23,24,24,25,25,26,26,29,29,30,30,31,31,32,32,37,37,38,38,39,39,40,40,41,41,42,42,43,43,45,45,48,48],"right_children":[2,4,6,8,10,12,14,16,18,20,-1,22,24,26,28,30,32,-1,34,-1,36,38,40,42,44,46,48,-1,-1,50,52,54,56,-1,-1,-1,-1,58,60,62,64,66,68,70,-1,72,-1,-1,74,-1,-1,-1,-1,-1,-1,-1,-1,-1,-1,-1,-1,-1,-1,-1,-1,-1,-1,-1,-1,-1,-1,-1,-1,-1,-1],"split_conditions":[1E0,2.3191E2,2.5E1,2.2324E2,6E0,1.6E1,1.2E1,4E0,1E0,3E0,2.6707612E-2,4E0,1E0,1E0,1.5E1,1E0,1E0,4.2883186E-3,1.5E1,3.991346E-2,1.1E1,1E0,1.3E1,1.8E1,8E0,4E0,4E0,7.930683E-2,-2.2678769E-1,3E0,1.5432E2,1.1E1,1E0,1.00755595E-1,3.4145594E-1,-2.834467E-1,-6.338169E-2,1E0,4E0,6E0,3E0,4E0,4E0,1.5E1,1.4976391E-2,1E0,2.4081479E-1,3.6693263E-1,3.1E1,6.182705E-3,-1.20872214E-1,3.1039983E-1,-2.1957286E-1,6.815124E-2,-1.4223695E-1,4.4298925E-2,-2.7793145E-1,1.4510025E-1,-7.416741E-2,2.4654368E-1,-5.3428147E-2,2.1755649E-1,-4.7216933E-2,-8.692807E-2,4.133373E-1,-1.628575E-1,-3.758395E-1,-1.7267878E-1,2.758032E-1,3.0864632E-1,5.647179E-2,-2.1019214E-1,8.176533E-2,-8.108696E-2,2.3359136E-1],"split_indices":[8,13,2,13,10,2,0,6,3,7,0,7,28,3,9,16,21,0,2,0,12,20,2,9,0,6,12,0,0,4,13,0,0,0,0,0,0,12,6,0,12,6,6,9,0,19,0,0,2,0,0,0,0,0,0,0,0,0,0,0,0,0,0,0,0,0,0,0,0,0,0,0,0,0,0],"split_type":[0,0,0,0,0,0,0,0,0,0,0,0,0,0,0,0,0,0,0,0,0,0,0,0,0,0,0,0,0,0,0,0,0,0,0,0,0,0,0,0,0,0,0,0,0,0,0,0,0,0,0,0,0,0,0,0,0,0,0,0,0,0,0,0,0,0,0,0,0,0,0,0,0,0,0],"sum_hessian":[2.2976857E2,1.4828882E2,8.1479744E1,1.3908008E2,9.208745E0,6.632E1,1.5159741E1,1.3424194E2,4.8381295E0,7.352241E0,1.8565041E0,5.0649887E1,1.5670112E1,1.2169318E1,2.9904227E0,7.219506E1,6.204689E1,1.5925033E0,3.2456264E0,1.5168587E0,5.8353825E0,3.0369637E1,2.028025E1,1.1717989E1,3.952123E0,5.122938E0,7.04638E0,1.5713685E0,1.4190542E0,6.5264175E1,6.930883E0,5.737679E1,4.670101E0,1.179388E0,2.0662384E0,4.708495E0,1.1268871E0,2.673407E1,3.6355677E0,1.47437315E1,5.536518E0,7.7527194E0,3.9652698E0,2.9183147E0,1.0338082E0,3.5552185E0,1.5677197E0,4.148072E0,2.8983083E0,1.8036797E1,4.722738E1,5.095076E0,1.8358068E0,5.0001312E1,7.37548E0,1.0259693E0,3.644132E0,3.445402E0,2.3288668E1,2.3777716E0,1.2577959E0,5.329234E0,9.414497E0,1.7949665E0,3.7415514E0,4.05078E0,3.7019398E0,1.9850597E0,1.9802101E0,1.8355359E0,1.0827787E0,1.8472263E0,1.7079923E0,1.2751683E0,1.62314E0],"tree_param":{"num_deleted":"0","num_feature":"29","num_nodes":"75","size_leaf_vector":"1"}},{"base_weights":[-3.4236684E-3,-2.407771E-2,4.8590627E-1,-1.4473874E-3,-4.575228E-1,7.585561E-1,-1.0048682E-1,-7.9387955E-2,1.5350218E-1,-6.728095E-1,1.2152732E-1,8.805271E-1,4.7948156E-2,-1.2775086E-1,3.1363595E-1,1.9540567E-2,5.120327E-1,-1.6662369E-3,-8.347892E-1,2.9987475E-1,5.0090235E-2,1.8229297E-1,-1.9286475E-1,5.817998E-1,-2.1453741E-1,-8.729391E-2,7.5086576E-1,8.113185E-1,-3.440446E-1,-7.635859E-2,-2.681424E-1,-1.5005981E-2,2.4125919E-1,-1.1987467E-2,-1.2618639E-1,2.8297254E-1,-3.336767E-2,-9.138094E-2,7.7597335E-2,-1.345284E-2,4.1616634E-1,4.0815985E-1,3.7785716E-2,-2.733514E-1,1.2561649E-1],"categories":[],"categories_nodes":[],"categories_segments":[],"categories_sizes":[],"default_left":[0,0,0,0,0,0,0,0,0,0,0,0,0,0,0,0,0,0,0,0,0,0,0,0,0,0,0,0,0,0,0,0,0,0,0,0,0,0,0,0,0,0,0,0,0],"id":16,"left_children":[1,3,5,7,9,11,-1,13,15,17,-1,19,-1,21,23,25,27,-1,29,-1,-1,31,33,35,-1,37,39,41,43,-1,-1,-1,-1,-1,-1,-1,-1,-1,-1,-1,-1,-1,-1,-1,-1],"loss_changes":[2.2637424E0,2.105884E0,2.2843823E0,2.4891913E0,2.2509053E0,3.789363E-1,0E0,2.6464381E0,3.3031623E0,9.5741034E-1,0E0,3.1648397E-1,0E0,2.5144134E0,4.640792E0,4.070385E0,5.0764394E0,0E0,1.7555714E-2,0E0,0E0,3.1940064E0,3.534636E0,3.2858214E0,0E0,3.5084682E0,3.4232178E0,5.1629744E0,2.783453E0,0E0,0E0,0E0,0E0,0E0,0E0,0E0,0E0,0E0,0E0,0E0,0E0,0E0,0E0,0E0,0E0],"parents":[2147483647,0,0,1,1,2,2,3,3,4,4,5,5,7,7,8,8,9,9,11,11,13,13,14,14,15,15,16,16,18,18,21,21,22,22,23,23,25,25,26,26,27,27,28,28],"right_children":[2,4,6,8,10,12,-1,14,16,18,-1,20,-1,22,24,26,28,-1,30,-1,-1,32,34,36,-1,38,40,42,44,-1,-1,-1,-1,-1,-1,-1,-1,-1,-1,-1,-1,-1,-1,-1,-1],"split_conditions":[6E0,1E1,1.8E1,5E0,2.9E1,1E0,-1.0048682E-1,7E0,5E0,7E0,1.2152732E-1,3E0,4.7948156E-2,1E0,5E0,1E0,1E0,-1.6662369E-3,9E0,2.9987475E-1,5.0090235E-2,2.2E1,2E0,9E0,-2.1453741E-1,3E0,1.4E1,9E0,1.5E1,-7.635859E-2,-2.681424E-1,-1.5005981E-2,2.4125919E-1,-1.1987467E-2,-1.2618639E-1,2.8297254E-1,-3.336767E-2,-9.138094E-2,7.7597335E-2,-1.345284E-2,4.1616634E-1,4.0815985E-1,3.7785716E-2,-2.733514E-1,1.2561649E-1],"split_indices":[5,12,9,7,2,18,0,11,6,0,0,11,0,12,6,16,23,0,2,0,0,2,0,11,0,1,9,0,2,0,0,0,0,0,0,0,0,0,0,0,0,0,0,0,0],"split_type":[0,0,0,0,0,0,0,0,0,0,0,0,0,0,0,0,0,0,0,0,0,0,0,0,0,0,0,0,0,0,0,0,0,0,0,0,0,0,0,0,0,0,0,0,0],"sum_hessian":[2.2182803E2,2.1375642E2,8.071612E0,2.0410345E2,9.652974E0,6.116062E0,1.95555E0,1.3612128E2,6.798217E1,7.901094E0,1.7518798E0,4.689976E0,1.4260861E0,1.2180742E2,1.4313858E1,5.0258175E1,1.7723999E1,1.745405E0,6.155689E0,3.6758344E0,1.0141419E0,2.0829037E1,1.0097838E2,1.1698826E1,2.615032E0,4.4620495E1,5.637678E0,1.3171506E1,4.5524936E0,1.0587678E0,5.096921E0,1.5833857E1,4.9951816E0,6.1120197E1,3.9858185E1,7.4515038E0,4.2473226E0,2.7479067E1,1.7141428E1,2.9182212E0,2.7194571E0,6.7651634E0,6.4063425E0,2.4995122E0,2.0529816E0],"tree_param":{"num_deleted":"0","num_feature":"29","num_nodes":"45","size_leaf_vector":"1"}},{"base_weights":[-4.2196614E-4,-3.772354E-1,2.4363767E-2,-6.072649E-1,8.855939E-2,3.6632486E-2,-2.1394172E-1,-8.079721E-1,4.1875325E-2,-1.741969E-1,4.4057527E-1,-2.0697777E-1,4.6337754E-2,-8.3839655E-2,-2.6932293E-1,1.874522E-1,2.030863E-3,-1.403015E-1,8.847121E-2,-5.01089E-1,4.0083808E-1,1.1872689E-1,-2.1824163E-1,-2.6437628E-1,-7.1210764E-2,2.0859E-1,-1.3754836E-1,2.4695886E-2,1.3565096E-1,-1.3108738E-1,2.0186584E-1],"categories":[],"categories_nodes":[],"categories_segments":[],"categories_sizes":[],"default_left":[0,0,0,0,0,0,0,0,0,0,0,0,0,0,0,0,0,0,0,0,0,0,0,0,0,0,0,0,0,0,0],"id":17,"left_children":[1,3,5,7,9,11,-1,13,-1,-1,15,-1,17,-1,-1,-1,-1,19,21,23,25,27,29,-1,-1,-1,-1,-1,-1,-1,-1],"loss_changes":[2.031517E0,1.4921706E0,1.8729364E0,1.4789276E0,1.5068845E0,1.4543813E0,0E0,9.691429E-2,0E0,0E0,3.1940353E-1,0E0,1.5851425E0,0E0,0E0,0E0,0E0,7.4676614E0,1.5457265E0,2.0742798E0,4.2268744E0,1.7803309E0,3.2287905E0,0E0,0E0,0E0,0E0,0E0,0E0,0E0,0E0],"parents":[2147483647,0,0,1,1,2,2,3,3,4,4,5,5,7,7,10,10,12,12,17,17,18,18,19,19,20,20,21,21,22,22],"right_children":[2,4,6,8,10,12,-1,14,-1,-1,16,-1,18,-1,-1,-1,-1,20,22,24,26,28,30,-1,-1,-1,-1,-1,-1,-1,-1],"split_conditions":[3E0,2E0,2.2E1,4E0,1.7E1,1.1102E2,-2.1394172E-1,1.2785E2,4.1875325E-2,-1.741969E-1,1E0,-2.0697777E-1,9E0,-8.3839655E-2,-2.6932293E-1,1.874522E-1,2.030863E-3,2E0,9E0,1E0,1.7E1,4E0,3.2E1,-2.6437628E-1,-7.1210764E-2,2.0859E-1,-1.3754836E-1,2.4695886E-2,1.3565096E-1,-1.3108738E-1,2.0186584E-1],"split_indices":[5,1,0,11,2,13,0,13,0,0,14,0,2,0,0,0,0,1,12,3,9,10,2,0,0,0,0,0,0,0,0],"split_type":[0,0,0,0,0,0,0,0,0,0,0,0,0,0,0,0,0,0,0,0,0,0,0,0,0,0,0,0,0,0,0],"sum_hessian":[2.1553246E2,1.2424527E1,2.0310793E2,8.113845E0,4.3106823E0,2.007192E2,2.3887322E0,6.330701E0,1.7831441E0,1.2619942E0,3.0486884E0,1.7219559E0,1.9899724E2,1.5163902E0,4.8143106E0,1.8307014E0,1.2179871E0,3.622055E1,1.6277669E2,2.1776068E1,1.4444485E1,1.487192E2,1.4057492E1,7.9598775E0,1.381619E1,1.090025E1,3.5442343E0,1.3520374E2,1.3515463E1,1.169641E1,2.3610818E0],"tree_param":{"num_deleted":"0","num_feature":"29","num_nodes":"31","size_leaf_vector":"1"}},{"base_weights":[-6.0535893E-3,-7.9950534E-2,1.0698251E-1,-5.553943E-1,-5.183584E-2,7.9875773E-1,6.2453102E-2,-7.318156E-1,7.246722E-2,-3.162288E-1,-4.5714958E-4,3.207075E-1,1.5586468E-2,-1.4444993E-2,3.3877406E-1,-5.6009833E-2,-2.4898574E-1,-5.298605E-1,3.872735E-1,-6.34551E-1,4.11271E-2,-1.0330393E-1,4.3837082E-1,3.8776654E-1,1.675745E-1,-8.9829266E-1,-2.752249E-1,-4.217308E-2,5.7279724E-1,2.1736516E-2,-2.4371587E-1,5.9953786E-2,-1.9861428E-1,4.188142E-2,-5.632735E-1,4.3551188E-2,9.191354E-1,5.1234764E-1,-2.507401E-1,-8.3880976E-2,-2.9484817E-1,1.3426906E-1,-1.4693363E-1,2.4460141E-1,1.3081993E-2,4.0349057E-3,1.09470345E-1,-1.6632522E-2,1.8387239E-1,-2.2243208E-1,-2.857772E-2,2.1127404E-1,-1.5583213E-1,4.3776867E-1,-6.806248E-2,-4.9203847E-2,2.2578052E-1,-1.6358635E-1,1.8696879E-1],"categories":[],"categories_nodes":[],"categories_segments":[],"categories_sizes":[],"default_left":[0,0,0,0,0,0,0,0,0,0,0,0,0,0,0,0,0,0,0,0,0,0,0,0,0,0,0,0,0,0,0,0,0,0,0,0,0,0,0,0,0,0,0,0,0,0,0,0,0,0,0,0,0,0,0,0,0,0,0],"id":18,"left_children":[1,3,5,7,9,11,13,15,-1,17,19,-1,-1,21,23,-1,-1,25,27,29,31,33,35,-1,37,39,41,-1,43,-1,-1,45,-1,47,49,51,53,55,57,-1,-1,-1,-1,-1,-1,-1,-1,-1,-1,-1,-1,-1,-1,-1,-1,-1,-1,-1,-1],"loss_changes":[1.7951987E0,1.7077148E0,2.5679262E0,1.18209E0,1.681032E0,9.6466494E-1,1.7244816E0,1.7150402E-1,0E0,3.2313485E0,2.7848735E0,0E0,0E0,2.6312194E0,2.6669314E0,0E0,0E0,1.2413826E0,5.964051E-1,8.7610245E-1,1.3519498E0,3.6654468E0,1.9973607E0,0E0,2.4534748E0,4.125023E-2,1.8978273E0,0E0,4.9003935E-1,0E0,0E0,1.3771584E0,0E0,2.389302E0,1.0261126E0,2.9484854E0,3.2959967E0,1.6128681E0,2.387668E0,0E0,0E0,0E0,0E0,0E0,0E0,0E0,0E0,0E0,0E0,0E0,0E0,0E0,0E0,0E0,0E0,0E0,0E0,0E0,0E0],"parents":[2147483647,0,0,1,1,2,2,3,3,4,4,5,5,6,6,7,7,9,9,10,10,13,13,14,14,17,17,18,18,19,19,20,20,21,21,22,22,24,24,25,25,26,26,28,28,31,31,33,33,34,34,35,35,36,36,37,37,38,38],"right_children":[2,4,6,8,10,12,14,16,-1,18,20,-1,-1,22,24,-1,-1,26,28,30,32,34,36,-1,38,40,42,-1,44,-1,-1,46,-1,48,50,52,54,56,58,-1,-1,-1,-1,-1,-1,-1,-1,-1,-1,-1,-1,-1,-1,-1,-1,-1,-1,-1,-1],"split_conditions":[1E0,3E0,1.2066E2,1E0,9E0,3E0,5E0,1.2785E2,7.246722E-2,1.9637E2,2E0,3.207075E-1,1.5586468E-2,4E0,2E0,-5.6009833E-2,-2.4898574E-1,3E0,4E0,1.4E1,1.2E1,1.673E2,1.6E1,3.8776654E-1,1E0,2E0,1.2956E2,-4.217308E-2,1E0,2.1736516E-2,-2.4371587E-1,4E0,-1.9861428E-1,1E0,7E0,2E0,8E0,1.4E1,1E0,-8.3880976E-2,-2.9484817E-1,1.3426906E-1,-1.4693363E-1,2.4460141E-1,1.3081993E-2,4.0349057E-3,1.09470345E-1,-1.6632522E-2,1.8387239E-1,-2.2243208E-1,-2.857772E-2,2.1127404E-1,-1.5583213E-1,4.3776867E-1,-6.806248E-2,-4.9203847E-2,2.2578052E-1,-1.6358635E-1,1.8696879E-1],"split_indices":[28,5,13,21,2,4,5,13,0,13,7,0,0,11,11,0,0,7,12,2,12,13,9,0,14,7,13,0,19,0,0,10,0,16,7,0,12,9,20,0,0,0,0,0,0,0,0,0,0,0,0,0,0,0,0,0,0,0,0],"split_type":[0,0,0,0,0,0,0,0,0,0,0,0,0,0,0,0,0,0,0,0,0,0,0,0,0,0,0,0,0,0,0,0,0,0,0,0,0,0,0,0,0,0,0,0,0,0,0,0,0,0,0,0,0,0,0,0,0,0,0],"sum_hessian":[2.128921E2,1.2891022E2,8.3981895E1,6.1502132E0,1.2276E2,4.05462E0,7.992728E1,5.1024213E0,1.0477922E0,1.9135338E1,1.03624664E2,2.6603668E0,1.394253E0,6.3267982E1,1.665929E1,1.2212486E0,3.8811724E0,1.4867398E1,4.26794E0,5.4999375E0,9.8124725E1,5.3534443E1,9.7335415E0,1.5384337E0,1.5120857E1,5.0429707E0,9.824428E0,1.1729482E0,3.094992E0,1.2244717E0,4.275466E0,9.645694E1,1.6677843E0,4.1381638E1,1.2152803E1,5.943298E0,3.790244E0,8.165827E0,6.9550304E0,1.1240278E0,3.9189427E0,2.0001864E0,7.8242416E0,1.7515073E0,1.3434848E0,8.459969E1,1.1857247E1,3.6127193E1,5.2544456E0,8.37886E0,3.7739427E0,2.6189468E0,3.324351E0,2.3903868E0,1.3998573E0,2.223524E0,5.942303E0,5.4831595E0,1.471871E0],"tree_param":{"num_deleted":"0","num_feature":"29","num_nodes":"59","size_leaf_vector":"1"}},{"base_weights":[-3.7461484E-3,-7.592802E-2,1.27112E-1,-3.866726E-1,-3.780326E-2,-1.2060257E-1,2.175585E-1,-5.4025275E-1,1.4377472E-1,-5.102875E-1,-7.3734666E-3,4.5648746E-2,-6.6654134E-1,2.526688E-1,-3.215627E-1,7.946401E-2,-6.619414E-1,-2.2502767E-1,-9.149128E-2,2.473715E-1,-6.936137E-2,4.4187915E-1,-1.3911593E-1,-2.3392372E-1,-3.639097E-2,1.721079E-1,5.9687024E-1,-2.0005213E-1,9.14865E-2,-2.5977817E-1,-1.8116714E-1,1.1100969E-1,-1.2289699E-1,7.0232786E-2,1.1180646E0,-8.9980364E-2,2.2141373E-1,6.1259466E-1,-3.9225534E-2,-5.4215974E-1,3.5082945E-1,3.387674E-2,6.4650416E-1,7.5177884E-1,-3.4450095E-2,1.0267337E-1,-2.2230278E-1,5.712284E-2,-2.176082E-1,1.8969517E-2,4.6308777E-1,1.7587192E-2,-6.271145E-2,2.4735221E-1,5.915141E-2,-2.1774793E-1,8.46122E-2,1.631651E-1,-9.4060205E-2,7.232426E-2,-1.4123687E-1,2.6551443E-1,-1.5001047E-1,2.957951E-1,7.5895414E-2],"categories":[],"categories_nodes":[],"categories_segments":[],"categories_sizes":[],"default_left":[0,0,0,0,0,0,0,0,0,0,0,0,0,0,0,0,0,0,0,0,0,0,0,0,0,0,0,0,0,0,0,0,0,0,0,0,0,0,0,0,0,0,0,0,0,0,0,0,0,0,0,0,0,0,0,0,0,0,0,0,0,0,0,0,0],"id":19,"left_children":[1,3,5,7,9,11,13,15,-1,17,19,21,23,25,27,-1,29,-1,31,33,35,37,39,-1,-1,41,43,-1,-1,-1,45,-1,-1,47,49,51,-1,53,-1,55,57,59,61,63,-1,-1,-1,-1,-1,-1,-1,-1,-1,-1,-1,-1,-1,-1,-1,-1,-1,-1,-1,-1,-1],"loss_changes":[1.9833714E0,1.5882611E0,1.698973E0,2.210797E0,1.7448477E0,1.9012489E0,1.12322E0,1.4427636E0,0E0,6.6894805E-1,1.8374975E0,1.286736E0,2.0636034E-1,1.3458838E0,1.0266287E0,0E0,9.7324467E-1,0E0,7.114958E-1,3.434874E0,1.6229328E0,6.23809E-1,2.5943098E0,0E0,0E0,2.846303E0,1.1340225E0,0E0,0E0,0E0,1.6300601E0,0E0,0E0,2.0499492E0,1.6009932E0,1.64102E0,0E0,2.3009837E-1,0E0,1.2753396E0,9.531603E-1,3.7655385E0,3.1265965E0,6.7773867E-1,0E0,0E0,0E0,0E0,0E0,0E0,0E0,0E0,0E0,0E0,0E0,0E0,0E0,0E0,0E0,0E0,0E0,0E0,0E0,0E0,0E0],"parents":[2147483647,0,0,1,1,2,2,3,3,4,4,5,5,6,6,7,7,9,9,10,10,11,11,12,12,13,13,14,14,16,16,18,18,19,19,20,20,21,21,22,22,25,25,26,26,30,30,33,33,34,34,35,35,37,37,39,39,40,40,41,41,42,42,43,43],"right_children":[2,4,6,8,10,12,14,16,-1,18,20,22,24,26,28,-1,30,-1,32,34,36,38,40,-1,-1,42,44,-1,-1,-1,46,-1,-1,48,50,52,-1,54,-1,56,58,60,62,64,-1,-1,-1,-1,-1,-1,-1,-1,-1,-1,-1,-1,-1,-1,-1,-1,-1,-1,-1,-1,-1],"split_conditions":[1E0,8E0,3E0,8E0,3E0,1E1,1E1,1.2E1,1.4377472E-1,1.7E1,1E0,2E0,1.9E1,2.6E1,1E0,7.946401E-2,1E0,-2.2502767E-1,1E0,1.7277E2,1E0,1.9E1,3E0,-2.3392372E-1,-3.639097E-2,1.2E1,1.4E1,-2.0005213E-1,9.14865E-2,-2.5977817E-1,1E0,1.1100969E-1,-1.2289699E-1,2E0,7E0,1.522E2,2.2141373E-1,1.2956E2,-3.9225534E-2,5E0,5E0,8E0,2E1,4E0,-3.4450095E-2,1.0267337E-1,-2.2230278E-1,5.712284E-2,-2.176082E-1,1.8969517E-2,4.6308777E-1,1.7587192E-2,-6.271145E-2,2.4735221E-1,5.915141E-2,-2.1774793E-1,8.46122E-2,1.631651E-1,-9.4060205E-2,7.232426E-2,-1.4123687E-1,2.6551443E-1,-1.5001047E-1,2.957951E-1,7.5895414E-2],"split_indices":[8,2,6,7,5,0,11,9,0,2,10,12,0,2,3,0,25,0,0,13,17,9,1,0,0,0,0,0,0,0,14,0,0,11,0,13,0,13,0,11,5,0,9,12,0,0,0,0,0,0,0,0,0,0,0,0,0,0,0,0,0,0,0,0,0],"split_type":[0,0,0,0,0,0,0,0,0,0,0,0,0,0,0,0,0,0,0,0,0,0,0,0,0,0,0,0,0,0,0,0,0,0,0,0,0,0,0,0,0,0,0,0,0,0,0,0,0,0,0,0,0,0,0,0,0,0,0,0,0,0,0,0,0],"sum_hessian":[2.0795685E2,1.3429756E2,7.365929E1,1.3677083E1,1.20620476E2,1.9612158E1,5.4047134E1,1.1936174E1,1.7409086E0,6.344221E0,1.1427625E2,1.5736426E1,3.8757308E0,5.1241367E1,2.8057637E0,1.4126841E0,1.052349E1,3.5311828E0,2.8130383E0,2.1779745E1,9.2496506E1,4.5618653E0,1.11745615E1,2.8532312E0,1.0224997E0,4.2738403E1,8.502967E0,1.7673864E0,1.0383773E0,6.8261433E0,3.6973467E0,1.0813856E0,1.7316527E0,1.8995796E1,2.7839487E0,9.105965E1,1.4368614E0,3.4604342E0,1.1014311E0,6.0725374E0,5.102024E0,3.3924713E1,8.813686E0,6.936803E0,1.5661645E0,2.1117194E0,1.5856274E0,1.7163822E1,1.8319749E0,1.1304648E0,1.6534837E0,4.0729683E1,5.0329964E1,1.63941E0,1.8210241E0,5.063527E0,1.0090107E0,4.0937786E0,1.0082455E0,2.442052E1,9.504195E0,7.4845533E0,1.3291334E0,4.055732E0,2.8810709E0],"tree_param":{"num_deleted":"0","num_feature":"29","num_nodes":"65","size_leaf_vector":"1"}},{"base_weights":[-4.305415E-3,6.300996E-3,-2.0664333E-1,-5.207366E-2,1.21386014E-1,-9.7572155E-2,2.3860618E-1,3.4041904E-2,3.6661294E-1,-2.119645E-1,3.924502E-2,5.137259E-1,-1.572448E-1,1.1121846E-1,-5.4608035E-1,5.5488676E-1,-3.4823835E-1,-1.2573178E-1,-4.6333078E-1,1.24853104E-1,-3.9958048E-1,7.857178E-1,1.0799448E-1,1.4196604E-1,-2.1553536E-1,-7.027043E-2,4.2320275E-1,-2.5122586E-1,1.0895232E-2,7.840976E-1,-1.5335436E-1,7.488251E-2,-6.133693E-1,4.864913E-2,-9.008591E-2,-2.6678178E-1,4.1506775E-2,8.4543295E-2,-3.3327326E-2,-1.8172294E-1,1.7879675E-1,2.7154467E-1,8.659178E-2,-1.4361483E-1,1.8716365E-1,-7.776013E-2,2.2699127E-1,4.967282E-2,-2.0185156E-1,-5.1250685E-2,2.9785985E-1,3.2660267E-1,5.5983793E-2,-2.1806224E-1,1.4937593E-1,-2.1649702E-1,-5.7145726E-2],"categories":[],"categories_nodes":[],"categories_segments":[],"categories_sizes":[],"default_left":[0,0,0,0,0,0,0,0,0,0,0,0,0,0,0,0,0,0,0,0,0,0,0,0,0,0,0,0,0,0,0,0,0,0,0,0,0,0,0,0,0,0,0,0,0,0,0,0,0,0,0,0,0,0,0,0,0],"id":20,"left_children":[1,3,-1,5,7,9,11,13,15,17,19,21,23,25,27,29,31,33,35,37,39,41,43,45,-1,47,49,-1,-1,51,53,-1,55,-1,-1,-1,-1,-1,-1,-1,-1,-1,-1,-1,-1,-1,-1,-1,-1,-1,-1,-1,-1,-1,-1,-1,-1],"loss_changes":[1.492296E0,1.3688228E0,0E0,1.8121519E0,1.4558632E0,1.8498427E0,2.1060338E0,2.3732445E0,2.6026084E0,1.3341985E0,2.094418E0,1.1517432E0,1.5109572E0,2.6579595E0,1.0881336E0,2.483132E0,8.4203994E-1,2.5213292E0,4.232854E0,1.7460003E0,2.233325E0,1.2753391E-1,2.0107388E0,1.7515439E0,0E0,4.403741E0,5.994752E0,0E0,0E0,1.8277802E0,2.0036473E0,0E0,1.36653185E-2,0E0,0E0,0E0,0E0,0E0,0E0,0E0,0E0,0E0,0E0,0E0,0E0,0E0,0E0,0E0,0E0,0E0,0E0,0E0,0E0,0E0,0E0,0E0,0E0],"parents":[2147483647,0,0,1,1,3,3,4,4,5,5,6,6,7,7,8,8,9,9,10,10,11,11,12,12,13,13,14,14,15,15,16,16,17,17,18,18,19,19,20,20,21,21,22,22,23,23,25,25,26,26,29,29,30,30,32,32],"right_children":[2,4,-1,6,8,10,12,14,16,18,20,22,24,26,28,30,32,34,36,38,40,42,44,46,-1,48,50,-1,-1,52,54,-1,56,-1,-1,-1,-1,-1,-1,-1,-1,-1,-1,-1,-1,-1,-1,-1,-1,-1,-1,-1,-1,-1,-1,-1,-1],"split_conditions":[2.2E1,5E0,-2.0664333E-1,1E0,5E0,1E0,1E0,2.9E1,7E0,1.9E1,1E0,1.766E2,6E0,1.5E1,1E0,1E0,1.5662E2,1E0,1E0,1E0,3.2E1,1E0,8E0,1E0,-2.1553536E-1,1.8744E2,1.7277E2,-2.5122586E-1,1.0895232E-2,1E1,1E0,7.488251E-2,1.9998E2,4.864913E-2,-9.008591E-2,-2.6678178E-1,4.1506775E-2,8.4543295E-2,-3.3327326E-2,-1.8172294E-1,1.7879675E-1,2.7154467E-1,8.659178E-2,-1.4361483E-1,1.8716365E-1,-7.776013E-2,2.2699127E-1,4.967282E-2,-2.0185156E-1,-5.1250685E-2,2.9785985E-1,3.2660267E-1,5.5983793E-2,-2.1806224E-1,1.4937593E-1,-2.1649702E-1,-5.7145726E-2],"split_indices":[0,7,0,20,6,28,23,2,12,9,23,13,0,2,8,23,13,3,8,15,2,28,12,28,0,13,13,0,0,0,28,0,13,0,0,0,0,0,0,0,0,0,0,0,0,0,0,0,0,0,0,0,0,0,0,0,0],"split_type":[0,0,0,0,0,0,0,0,0,0,0,0,0,0,0,0,0,0,0,0,0,0,0,0,0,0,0,0,0,0,0,0,0,0,0,0,0,0,0,0,0,0,0,0,0,0,0,0,0,0,0,0,0,0,0,0,0],"sum_hessian":[2.0394843E2,2.0181215E2,2.1362834E0,1.3425925E2,6.7552895E1,1.1666298E2,1.7596273E1,5.065101E1,1.6901888E1,6.323945E1,5.3423527E1,1.0205554E1,7.3907204E0,4.5417213E1,5.233794E0,1.3555488E1,3.3464007E0,4.820323E1,1.5036217E1,4.5301407E1,8.122122E0,5.54906E0,4.6564937E0,5.307843E0,2.0828772E0,2.9203556E1,1.621366E1,3.1967614E0,2.0370328E0,1.0160198E1,3.39529E0,1.0460954E0,2.3003054E0,1.8221394E1,2.9981838E1,8.524E0,6.5122166E0,2.7087507E1,1.82139E1,7.053122E0,1.0689995E0,3.8121843E0,1.7368758E0,2.2123995E0,2.444094E0,3.5616417E0,1.7462013E0,2.150979E1,7.693764E0,8.279747E0,7.9339123E0,6.1851287E0,3.975069E0,1.7436931E0,1.6515969E0,1.2688725E0,1.031433E0],"tree_param":{"num_deleted":"0","num_feature":"29","num_nodes":"57","size_leaf_vector":"1"}},{"base_weights":[-6.6815526E-3,-2.2863677E-2,3.8712442E-1,1.3204443E-1,-5.9774384E-2,5.824287E-1,-7.918276E-2,4.1903314E-1,-1.05825335E-1,1.1968958E-1,-1.3017154E-1,2.367071E-1,1.8495226E-1,8.1951696E-1,1.7708407E-1,9.082756E-2,-5.56253E-1,-2.1626371E-1,3.5287452E-1,-8.234827E-2,-6.450381E-1,-1.0607781E-1,2.1344338E-1,2.7863243E-1,5.754812E-2,2.991892E-1,-1.601129E-1,-1.5545394E-1,9.420915E-1,9.137068E-2,-8.9647436E-1,-4.4707572E-1,4.175586E-1,4.8838735E-1,-1.9299251E-1,-2.1295139E-1,4.6499584E-2,1.6574866E-1,-8.7167835E-1,1.5357502E-1,1.3869048E-2,5.1967744E-2,-1.9225816E-1,3.8404125E-1,3.997485E-2,-3.2127813E-1,-8.195872E-2,-2.35675E-1,5.274795E-2,-9.937507E-2,3.499455E-1,2.4922842E-1,5.430723E-2,-1.572726E-1,8.4249966E-2,-1.9274528E-1,-1.8780252E-2,1.8523E-1,-6.5523777E-3,-2.882774E-1,-4.0402684E-2],"categories":[],"categories_nodes":[],"categories_segments":[],"categories_sizes":[],"default_left":[0,0,0,0,0,0,0,0,0,0,0,0,0,0,0,0,0,0,0,0,0,0,0,0,0,0,0,0,0,0,0,0,0,0,0,0,0,0,0,0,0,0,0,0,0,0,0,0,0,0,0,0,0,0,0,0,0,0,0,0,0],"id":21,"left_children":[1,3,5,7,9,11,-1,13,15,17,19,-1,21,23,25,27,29,31,33,35,37,-1,-1,-1,-1,39,-1,41,43,-1,45,47,49,51,53,55,57,-1,59,-1,-1,-1,-1,-1,-1,-1,-1,-1,-1,-1,-1,-1,-1,-1,-1,-1,-1,-1,-1,-1,-1],"loss_changes":[1.2772846E0,1.106461E0,1.1597867E0,2.5894802E0,1.9845467E0,3.794601E-1,0E0,1.5116551E0,1.9269803E0,3.5569952E0,2.7149267E0,0E0,1.2424258E0,2.4455261E-1,1.1954991E0,3.4182224E0,2.1996624E0,2.9405222E0,2.062415E0,1.7601863E0,3.0350654E0,0E0,0E0,0E0,0E0,5.588798E-1,0E0,2.17907E0,8.2564235E-1,0E0,2.4766874E-1,3.1495764E0,3.4944248E0,2.122491E0,1.0902588E0,3.3071623E0,2.0883868E0,0E0,4.1644573E-1,0E0,0E0,0E0,0E0,0E0,0E0,0E0,0E0,0E0,0E0,0E0,0E0,0E0,0E0,0E0,0E0,0E0,0E0,0E0,0E0,0E0,0E0],"parents":[2147483647,0,0,1,1,2,2,3,3,4,4,5,5,7,7,8,8,9,9,10,10,12,12,13,13,14,14,15,15,16,16,17,17,18,18,19,19,20,20,25,25,27,27,28,28,30,30,31,31,32,32,33,33,34,34,35,35,36,36,38,38],"right_children":[2,4,6,8,10,12,-1,14,16,18,20,-1,22,24,26,28,30,32,34,36,38,-1,-1,-1,-1,40,-1,42,44,-1,46,48,50,52,54,56,58,-1,60,-1,-1,-1,-1,-1,-1,-1,-1,-1,-1,-1,-1,-1,-1,-1,-1,-1,-1,-1,-1,-1,-1],"split_conditions":[6E0,1E0,1.8E1,1E0,2E0,1E0,-7.918276E-2,1.3E1,3E0,1E0,1E0,2.367071E-1,6E0,5E0,1.8621E2,1.3978E2,1E1,2.3E1,1.673E2,1.6377E2,1.2213E2,-1.0607781E-1,2.1344338E-1,2.7863243E-1,5.754812E-2,1E0,-1.601129E-1,1E0,4E0,9.137068E-2,4E0,1E0,1E0,1.3E1,1E0,3E0,1.6798E2,1.6574866E-1,2.1E1,1.5357502E-1,1.3869048E-2,5.1967744E-2,-1.9225816E-1,3.8404125E-1,3.997485E-2,-3.2127813E-1,-8.195872E-2,-2.35675E-1,5.274795E-2,-9.937507E-2,3.499455E-1,2.4922842E-1,5.430723E-2,-1.572726E-1,8.4249966E-2,-1.9274528E-1,-1.8780252E-2,1.8523E-1,-6.5523777E-3,-2.882774E-1,-4.0402684E-2],"split_indices":[5,0,9,15,12,27,0,9,1,3,21,0,7,6,13,13,2,2,13,13,13,0,0,0,0,3,0,19,5,0,5,8,19,2,8,6,13,0,9,0,0,0,0,0,0,0,0,0,0,0,0,0,0,0,0,0,0,0,0,0,0],"split_type":[0,0,0,0,0,0,0,0,0,0,0,0,0,0,0,0,0,0,0,0,0,0,0,0,0,0,0,0,0,0,0,0,0,0,0,0,0,0,0,0,0,0,0,0,0,0,0,0,0,0,0,0,0,0,0,0,0,0,0,0,0],"sum_hessian":[1.9804436E2,1.9113235E2,6.9119964E0,3.628266E1,1.548497E2,5.3981166E0,1.5138798E0,1.6098406E1,2.0184256E1,4.3430874E1,1.1141883E2,2.9037576E0,2.4943588E0,5.163849E0,1.0934557E1,1.4605827E1,5.5784273E0,1.7824049E1,2.5606825E1,1.0301065E2,8.408179E0,1.3954726E0,1.0988861E0,3.9897146E0,1.1741343E0,9.825706E0,1.1088516E0,1.1962352E1,2.643476E0,1.609894E0,3.9685333E0,1.3281945E1,4.542103E0,2.0598497E1,5.008327E0,5.0832718E1,5.217793E1,1.1092578E0,7.2989216E0,4.7812066E0,5.0444984E0,7.5161376E0,4.446214E0,1.4533758E0,1.1901002E0,2.539519E0,1.4290143E0,8.436228E0,4.845718E0,2.5501013E0,1.9920014E0,8.938725E0,1.1659772E1,2.8850195E0,2.1233072E0,1.2331089E1,3.850163E1,4.7190857E0,4.7458843E1,6.239528E0,1.0593938E0],"tree_param":{"num_deleted":"0","num_feature":"29","num_nodes":"61","size_leaf_vector":"1"}},{"base_weights":[-3.1881297E-3,5.811672E-3,-1.9146867E-1,-9.553254E-2,6.007079E-2,-1.18473746E-1,1.9308843E-1,4.537832E-1,2.6657417E-2,-2.4080901E-1,-1.33537715E-2,6.660887E-1,-1.3013555E-1,-7.380034E-2,1.5865383E-1,-3.404331E-1,4.3038818E-1,-1.8439075E-1,2.1987411E-1,3.604699E-1,3.0550873E-1,-1.425549E-1,4.5465E-1,5.329874E-1,-6.6168555E-3,6.06148E-3,-1.5312263E-1,-1.7051686E-2,2.4571754E-1,8.976953E-2,-1.3132483E-1,-1.6809104E-1,1.0142117E-1,2.395157E-1,5.455182E-3,9.826306E-3,-1.679597E-1,4.16517E-1,-1.031943E-1,2.0122045E-1,-1.7707154E-1,1.21319436E-1,-5.0565336E-2],"categories":[],"categories_nodes":[],"categories_segments":[],"categories_sizes":[],"default_left":[0,0,0,0,0,0,0,0,0,0,0,0,0,0,0,0,0,0,0,0,0,0,0,0,0,0,0,0,0,0,0,0,0,0,0,0,0,0,0,0,0,0,0],"id":22,"left_children":[1,3,-1,5,7,9,-1,11,13,15,17,19,-1,21,23,25,27,29,31,33,-1,35,37,39,41,-1,-1,-1,-1,-1,-1,-1,-1,-1,-1,-1,-1,-1,-1,-1,-1,-1,-1],"loss_changes":[1.1126873E0,1.0632671E0,0E0,1.21998E0,1.6437624E0,8.4890425E-1,0E0,2.132638E0,1.56428E0,2.1902988E0,1.5044168E0,5.2542615E-1,0E0,2.505274E0,3.1536179E0,1.675992E0,8.782616E-1,2.7917495E0,1.6631923E0,8.8286835E-1,0E0,4.4222527E0,6.4221396E0,2.8106909E0,2.4848795E0,0E0,0E0,0E0,0E0,0E0,0E0,0E0,0E0,0E0,0E0,0E0,0E0,0E0,0E0,0E0,0E0,0E0,0E0],"parents":[2147483647,0,0,1,1,3,3,4,4,5,5,7,7,8,8,9,9,10,10,11,11,13,13,14,14,15,15,16,16,17,17,18,18,19,19,21,21,22,22,23,23,24,24],"right_children":[2,4,-1,6,8,10,-1,12,14,16,18,20,-1,22,24,26,28,30,32,34,-1,36,38,40,42,-1,-1,-1,-1,-1,-1,-1,-1,-1,-1,-1,-1,-1,-1,-1,-1,-1,-1],"split_conditions":[2.2E1,4E0,-1.9146867E-1,1.3E1,1.2439E2,3E0,1.9308843E-1,2E0,4E0,7E0,1E0,2E0,-1.3013555E-1,1.3E1,1.5468E2,1.2476E2,1.6E1,1E0,1.2119E2,1E0,3.0550873E-1,2E0,3E0,1E0,4E0,6.06148E-3,-1.5312263E-1,-1.7051686E-2,2.4571754E-1,8.976953E-2,-1.3132483E-1,-1.6809104E-1,1.0142117E-1,2.395157E-1,5.455182E-3,9.826306E-3,-1.679597E-1,4.16517E-1,-1.031943E-1,2.0122045E-1,-1.7707154E-1,1.21319436E-1,-5.0565336E-2],"split_indices":[0,5,0,11,13,4,0,11,7,11,19,1,0,0,13,13,9,0,13,0,0,0,6,21,0,0,0,0,0,0,0,0,0,0,0,0,0,0,0,0,0,0,0],"split_type":[0,0,0,0,0,0,0,0,0,0,0,0,0,0,0,0,0,0,0,0,0,0,0,0,0,0,0,0,0,0,0,0,0,0,0,0,0,0,0,0,0,0,0],"sum_hessian":[1.9303871E2,1.9131819E2,1.7205144E0,6.64477E1,1.248705E2,6.5261894E1,1.1858048E0,8.784238E0,1.1608626E2,2.9564674E1,3.5697224E1,7.29001E0,1.4942276E0,6.6168594E1,4.9917664E1,2.6172722E1,3.3919528E0,2.0715193E1,1.4982029E1,4.986868E0,2.3031423E0,5.9196957E1,6.9716387E0,1.46073885E1,3.5310276E1,8.666373E0,1.7506348E1,1.8839905E0,1.5079622E0,7.059204E0,1.365599E1,1.4790225E0,1.3503006E1,1.6032201E0,3.3836477E0,4.2334183E1,1.6862776E1,2.8735228E0,4.0981154E0,1.3370536E1,1.2368529E0,9.556658E0,2.5753616E1],"tree_param":{"num_deleted":"0","num_feature":"29","num_nodes":"43","size_leaf_vector":"1"}},{"base_weights":[-1.2177507E-3,-5.997213E-2,1.0332766E-1,-4.7609836E-1,-3.6660384E-2,4.0175334E-2,3.7787908E-1,-2.5116277E-1,-6.7768316E-3,-1.1693604E-2,-4.4378063E-1,7.978732E-2,-1.9785643E-1,-6.549443E-2,6.4366615E-1,-1.4088112E-1,1.1167406E-1,-1.6986807E-1,4.744083E-2,-7.604908E-1,6.553308E-2,1.618347E-1,-1.884306E-1,1.7631349E-1,-4.3568563E-1,8.1067455E-1,-2.243462E-2,-4.2843144E-2,-6.741793E-1,6.0568887E-1,3.0678308E-3,-2.751974E-1,-4.3152295E-2,1.01450145E-1,-5.6529775E-2,1.02474555E-1,6.119029E-1,-4.6849856E-1,1.6565333E-1,-2.0806564E-1,4.5646317E-2,3.0925342E-1,2.7672002E-1,7.560792E-2,-6.799149E-2,-4.5009248E-2,-2.5155026E-1,8.443189E-3,3.2704246E-1,-8.479674E-2,1.9132223E-2,5.0686568E-2,-9.606502E-2,2.9244555E-2,2.5941572E-1,7.225706E-2,-2.274222E-1,-1.9632995E-1,1.7213729E-1,-3.302909E-2,1.6047224E-1],"categories":[],"categories_nodes":[],"categories_segments":[],"categories_sizes":[],"default_left":[0,0,0,0,0,0,0,0,0,0,0,0,0,0,0,0,0,0,0,0,0,0,0,0,0,0,0,0,0,0,0,0,0,0,0,0,0,0,0,0,0,0,0,0,0,0,0,0,0,0,0,0,0,0,0,0,0,0,0,0,0],"id":23,"left_children":[1,3,5,7,9,11,13,-1,15,17,19,21,-1,23,25,-1,-1,27,29,31,33,35,37,-1,39,41,-1,43,45,47,49,-1,-1,-1,-1,51,53,55,57,-1,-1,-1,59,-1,-1,-1,-1,-1,-1,-1,-1,-1,-1,-1,-1,-1,-1,-1,-1,-1,-1],"loss_changes":[1.1653904E0,1.1606908E0,1.1684628E0,1.0720979E0,1.1748147E0,1.6219041E0,1.5325435E0,0E0,8.367686E-1,1.0407854E0,1.127496E0,1.2293639E0,0E0,1.621738E0,1.0204611E0,0E0,0E0,1.9097838E0,2.0082402E0,2.7411056E-1,3.0482933E-1,1.0661762E0,1.388911E0,0E0,7.390058E-1,4.8772573E-1,0E0,1.425132E0,3.9279056E-1,1.6396897E0,1.3393282E0,0E0,0E0,0E0,0E0,1.1368873E0,5.2988315E-1,1.7528472E0,2.5774362E0,0E0,0E0,0E0,3.8712776E-1,0E0,0E0,0E0,0E0,0E0,0E0,0E0,0E0,0E0,0E0,0E0,0E0,0E0,0E0,0E0,0E0,0E0,0E0],"parents":[2147483647,0,0,1,1,2,2,3,3,4,4,5,5,6,6,8,8,9,9,10,10,11,11,13,13,14,14,17,17,18,18,19,19,20,20,21,21,22,22,24,24,25,25,27,27,28,28,29,29,30,30,35,35,36,36,37,37,38,38,42,42],"right_children":[2,4,6,8,10,12,14,-1,16,18,20,22,-1,24,26,-1,-1,28,30,32,34,36,38,-1,40,42,-1,44,46,48,50,-1,-1,-1,-1,52,54,56,58,-1,-1,-1,60,-1,-1,-1,-1,-1,-1,-1,-1,-1,-1,-1,-1,-1,-1,-1,-1,-1,-1],"split_conditions":[1E0,7E0,2.5E1,1.5044E2,1E1,2.3E1,1E0,-2.5116277E-1,4E0,1.3886E2,2E0,1E0,-1.9785643E-1,2.9E1,1.4E1,-1.4088112E-1,1.1167406E-1,1.3068E2,1.4306E2,1.4E1,1.1E1,1.9E1,4E0,1.7631349E-1,1E0,4E0,-2.243462E-2,3E0,1E0,5E0,1.4826E2,-2.751974E-1,-4.3152295E-2,1.01450145E-1,-5.6529775E-2,1.6E1,1.6E1,2E0,3E0,-2.0806564E-1,4.5646317E-2,3.0925342E-1,1.7731E2,7.560792E-2,-6.799149E-2,-4.5009248E-2,-2.5155026E-1,8.443189E-3,3.2704246E-1,-8.479674E-2,1.9132223E-2,5.0686568E-2,-9.606502E-2,2.9244555E-2,2.5941572E-1,7.225706E-2,-2.274222E-1,-1.9632995E-1,1.7213729E-1,-3.302909E-2,1.6047224E-1],"split_indices":[8,2,2,13,7,2,3,0,5,13,1,23,0,2,0,